{"learner":{"attributes":{"scikit_learn":"{\"_estimator_type\": \"regressor\"}"},"feature_names":["Store","Dept","IsHoliday","Size","Temperature","Fuel_Price","MarkDown1","MarkDown2","MarkDown3","MarkDown4","MarkDown5","CPI","Unemployment","Month","WeekOfYear","Year","DayOfYear","DayOfWeek","IsWeekend","Sales_Lag_1","Sales_Lag_2","Sales_Lag_3","Sales_Lag_4","Sales_Lag_8","Sales_Lag_12","Sales_Lag_26","Sales_Lag_52","Sales_Roll_Mean_4","Sales_Roll_Std_4","Sales_Roll_Min_4","Sales_Roll_Max_4","Sales_Roll_Mean_8","Sales_Roll_Std_8","Sales_Roll_Min_8","Sales_Roll_Max_8","Sales_Roll_Mean_12","Sales_Roll_Std_12","Sales_Roll_Min_12","Sales_Roll_Max_12","Sales_Roll_Mean_26","Sales_Roll_Std_26","Sales_Roll_Min_26","Sales_Roll_Max_26","Month_sin","Month_cos","WeekOfYear_sin","WeekOfYear_cos","Type_Encoded"],"feature_types":["int","int","int","int","float","float","float","float","float","float","float","float","float","int","int","int","int","int","int","float","float","float","float","float","float","float","float","float","float","float","float","float","float","float","float","float","float","float","float","float","float","float","float","float","float","float","float","int"],"gradient_booster":{"model":{"gbtree_model_param":{"num_parallel_tree":"1","num_trees":"300"},"iteration_indptr":[0,1,2,3,4,5,6,7,8,9,10,11,12,13,14,15,16,17,18,19,20,21,22,23,24,25,26,27,28,29,30,31,32,33,34,35,36,37,38,39,40,41,42,43,44,45,46,47,48,49,50,51,52,53,54,55,56,57,58,59,60,61,62,63,64,65,66,67,68,69,70,71,72,73,74,75,76,77,78,79,80,81,82,83,84,85,86,87,88,89,90,91,92,93,94,95,96,97,98,99,100,101,102,103,104,105,106,107,108,109,110,111,112,113,114,115,116,117,118,119,120,121,122,123,124,125,126,127,128,129,130,131,132,133,134,135,136,137,138,139,140,141,142,143,144,145,146,147,148,149,150,151,152,153,154,155,156,157,158,159,160,161,162,163,164,165,166,167,168,169,170,171,172,173,174,175,176,177,178,179,180,181,182,183,184,185,186,187,188,189,190,191,192,193,194,195,196,197,198,199,200,201,202,203,204,205,206,207,208,209,210,211,212,213,214,215,216,217,218,219,220,221,222,223,224,225,226,227,228,229,230,231,232,233,234,235,236,237,238,239,240,241,242,243,244,245,246,247,248,249,250,251,252,253,254,255,256,257,258,259,260,261,262,263,264,265,266,267,268,269,270,271,272,273,274,275,276,277,278,279,280,281,282,283,284,285,286,287,288,289,290,291,292,293,294,295,296,297,298,299,300],"tree_info":[0,0,0,0,0,0,0,0,0,0,0,0,0,0,0,0,0,0,0,0,0,0,0,0,0,0,0,0,0,0,0,0,0,0,0,0,0,0,0,0,0,0,0,0,0,0,0,0,0,0,0,0,0,0,0,0,0,0,0,0,0,0,0,0,0,0,0,0,0,0,0,0,0,0,0,0,0,0,0,0,0,0,0,0,0,0,0,0,0,0,0,0,0,0,0,0,0,0,0,0,0,0,0,0,0,0,0,0,0,0,0,0,0,0,0,0,0,0,0,0,0,0,0,0,0,0,0,0,0,0,0,0,0,0,0,0,0,0,0,0,0,0,0,0,0,0,0,0,0,0,0,0,0,0,0,0,0,0,0,0,0,0,0,0,0,0,0,0,0,0,0,0,0,0,0,0,0,0,0,0,0,0,0,0,0,0,0,0,0,0,0,0,0,0,0,0,0,0,0,0,0,0,0,0,0,0,0,0,0,0,0,0,0,0,0,0,0,0,0,0,0,0,0,0,0,0,0,0,0,0,0,0,0,0,0,0,0,0,0,0,0,0,0,0,0,0,0,0,0,0,0,0,0,0,0,0,0,0,0,0,0,0,0,0,0,0,0,0,0,0,0,0,0,0,0,0,0,0,0,0,0,0,0,0,0,0,0,0,0,0,0,0,0,0,0,0,0,0,0,0],"trees":[{"base_weights":[4.2731447E0,-7.3039785E3,4.194641E4,-1.1557775E4,4.1687837E3,3.1336955E4,8.1778445E4,-1.3973013E4,-7.106148E3,2.9874515E2,1.0203074E4,2.4165113E4,4.3688926E4,6.959372E4,1.2000022E5,-1.5126388E4,-1.2229115E4,-9.378131E3,-5.5323604E3,-1.7758469E3,2.634217E3,7.8723525E3,1.3842068E4,2.0981592E4,2.9680035E4,3.808544E4,5.0363188E4,6.2697227E4,8.455221E4,1.0445622E5,1.3857688E5,-1.5570758E4,-1.4373415E4,-1.2982706E4,-1.1444871E4,-9.943249E3,-8.639258E3,-1.7109609E3,-6.1239233E3,-2.8552258E3,-7.9294165E2,1.3730754E3,3.741403E3,6.3756265E3,9.365202E3,1.2403992E4,1.56025625E4,1.9033633E4,2.392488E4,2.7031748E4,3.2600645E4,3.8702043E4,1.555985E4,4.7913848E4,5.5767793E4,6.442115E4,2.6440732E4,1.45244E5,8.301511E4,9.995832E4,1.1995194E5,1.1707304E5,1.4423478E5,-7.871523E2,-7.6341766E2,-7.360793E2,-7.026828E2,-6.660668E2,-6.3044257E2,-5.921589E2,-5.522583E2,-5.1582196E2,-4.7646304E2,-4.493154E2,-4.1364777E2,-1.9203917E2,7.3006635E2,-3.645906E2,-2.4777237E2,-1.3975948E2,-4.4732666E2,-3.6091274E1,-3.6631906E2,7.230624E1,-2.7929108E2,1.9219878E2,-2.3571585E2,3.2435983E2,-1.563363E2,4.7951865E2,-1.5919829E2,6.349383E2,3.669867E1,7.5777185E2,1.1378428E3,9.692046E2,1.4895688E2,1.0954928E3,1.251262E3,1.3793076E3,4.04508E2,1.6227291E3,3.8948352E3,1.888344E3,2.4245496E3,4.220411E1,1.2474934E3,2.286208E3,2.544364E3,2.7122566E3,3.891114E3,3.1496108E3,4.451643E3,7.0830585E2,2.3671348E3,4.8273936E3,9.269818E3,3.8225688E3,4.383299E3,5.0584326E3,2.98397E3,2.7563242E2,6.03021E3,3.0058418E3,5.9381123E3,1.1722688E4,7.0957554E3],"categories":[],"categories_nodes":[],"categories_segments":[],"categories_sizes":[],"default_left":[0,0,0,0,0,0,0,0,0,0,0,0,0,0,0,0,0,0,0,0,0,0,0,0,0,0,0,0,0,0,0,0,0,0,0,0,0,0,0,0,0,0,0,0,0,0,0,0,0,0,0,0,0,0,0,0,0,0,0,0,0,0,0,0,0,0,0,0,0,0,0,0,0,0,0,0,0,0,0,0,0,0,0,0,0,0,0,0,0,0,0,0,0,0,0,0,0,0,0,0,0,0,0,0,0,0,0,0,0,0,0,0,0,0,0,0,0,0,0,0,0,0,0,0,0,0,0],"id":0,"left_children":[1,3,5,7,9,11,13,15,17,19,21,23,25,27,29,31,33,35,37,39,41,43,45,47,49,51,53,55,57,59,61,63,65,67,69,71,73,75,77,79,81,83,85,87,89,91,93,95,97,99,101,103,105,107,109,111,113,115,117,119,121,123,125,-1,-1,-1,-1,-1,-1,-1,-1,-1,-1,-1,-1,-1,-1,-1,-1,-1,-1,-1,-1,-1,-1,-1,-1,-1,-1,-1,-1,-1,-1,-1,-1,-1,-1,-1,-1,-1,-1,-1,-1,-1,-1,-1,-1,-1,-1,-1,-1,-1,-1,-1,-1,-1,-1,-1,-1,-1,-1,-1,-1,-1,-1,-1,-1],"loss_changes":[5.71446E13,7.7481755E12,1.1688137E13,1.2451777E12,1.00286556E12,1.9342914E12,2.7012199E12,1.5083451E11,1.4561522E11,1.2677806E11,1.4221024E11,2.4208317E11,2.9817202E11,4.50053E11,3.912258E11,1.4896071E10,1.7519608E10,6.8747264E9,5.4402154E10,1.4699008E10,1.7182138E10,2.2800237E10,1.6389243E10,4.9815224E10,3.823318E10,6.003884E10,4.57651E10,1.87369E11,1.17614576E11,4.160802E10,6.061608E10,1.2394168E9,1.6617308E9,1.7610834E9,2.202665E9,1.3599375E9,8.4505395E8,1.1220414E11,2.840717E10,2.3900774E9,3.365164E9,2.9340897E9,5.7025823E9,5.4399304E9,1.4498169E10,1.2409176E10,9.062973E9,2.9655564E10,7.185367E9,2.7689222E10,1.335047E10,3.706559E10,1.628433E10,1.4113833E10,3.3893122E10,9.592268E10,3.499166E10,4.662408E10,3.4754003E10,2.3310369E10,1.1875385E10,6.1374464E9,7.136713E10,0E0,0E0,0E0,0E0,0E0,0E0,0E0,0E0,0E0,0E0,0E0,0E0,0E0,0E0,0E0,0E0,0E0,0E0,0E0,0E0,0E0,0E0,0E0,0E0,0E0,0E0,0E0,0E0,0E0,0E0,0E0,0E0,0E0,0E0,0E0,0E0,0E0,0E0,0E0,0E0,0E0,0E0,0E0,0E0,0E0,0E0,0E0,0E0,0E0,0E0,0E0,0E0,0E0,0E0,0E0,0E0,0E0,0E0,0E0,0E0,0E0,0E0,0E0,0E0],"parents":[2147483647,0,0,1,1,2,2,3,3,4,4,5,5,6,6,7,7,8,8,9,9,10,10,11,11,12,12,13,13,14,14,15,15,16,16,17,17,18,18,19,19,20,20,21,21,22,22,23,23,24,24,25,25,26,26,27,27,28,28,29,29,30,30,31,31,32,32,33,33,34,34,35,35,36,36,37,37,38,38,39,39,40,40,41,41,42,42,43,43,44,44,45,45,46,46,47,47,48,48,49,49,50,50,51,51,52,52,53,53,54,54,55,55,56,56,57,57,58,58,59,59,60,60,61,61,62,62],"right_children":[2,4,6,8,10,12,14,16,18,20,22,24,26,28,30,32,34,36,38,40,42,44,46,48,50,52,54,56,58,60,62,64,66,68,70,72,74,76,78,80,82,84,86,88,90,92,94,96,98,100,102,104,106,108,110,112,114,116,118,120,122,124,126,-1,-1,-1,-1,-1,-1,-1,-1,-1,-1,-1,-1,-1,-1,-1,-1,-1,-1,-1,-1,-1,-1,-1,-1,-1,-1,-1,-1,-1,-1,-1,-1,-1,-1,-1,-1,-1,-1,-1,-1,-1,-1,-1,-1,-1,-1,-1,-1,-1,-1,-1,-1,-1,-1,-1,-1,-1,-1,-1,-1,-1,-1,-1,-1],"split_conditions":[3.219329E4,1.198733E4,7.279629E4,5.12802E3,2.07968E4,4.986502E4,1.10963266E5,2.06386E3,7.62599E3,1.600119E4,2.677983E4,4.161137E4,5.9614137E4,9.027894E4,1.3607189E5,7.9873E2,3.50198E3,6.45919E3,6E0,1.375123E4,1.805302E4,2.347736E4,2.94042E4,3.475563E4,4.5552008E4,5.2E1,6.947949E4,5.2E1,4.325905E4,1.2150984E5,1.3719069E5,2.992E2,1.3475E3,2.78415E3,4.28517E3,5.886201E3,7.429062E3,9E1,9.5535E3,5.2E1,5.2E1,5.2E1,5.2E1,5.2E1,5.2E1,5.2E1,4.7E1,5.2E1,3.89218E4,5.2E1,9.101502E4,4.7E1,2.39998E4,6.438447E4,4.7E1,4.9E1,5.7060312E4,7.253982E4,9.094329E4,5.2E1,3.939315E4,9.981211E4,9.801832E4,-7.871523E2,-7.6341766E2,-7.360793E2,-7.026828E2,-6.660668E2,-6.3044257E2,-5.921589E2,-5.522583E2,-5.1582196E2,-4.7646304E2,-4.493154E2,-4.1364777E2,-1.9203917E2,7.3006635E2,-3.645906E2,-2.4777237E2,-1.3975948E2,-4.4732666E2,-3.6091274E1,-3.6631906E2,7.230624E1,-2.7929108E2,1.9219878E2,-2.3571585E2,3.2435983E2,-1.563363E2,4.7951865E2,-1.5919829E2,6.349383E2,3.669867E1,7.5777185E2,1.1378428E3,9.692046E2,1.4895688E2,1.0954928E3,1.251262E3,1.3793076E3,4.04508E2,1.6227291E3,3.8948352E3,1.888344E3,2.4245496E3,4.220411E1,1.2474934E3,2.286208E3,2.544364E3,2.7122566E3,3.891114E3,3.1496108E3,4.451643E3,7.0830585E2,2.3671348E3,4.8273936E3,9.269818E3,3.8225688E3,4.383299E3,5.0584326E3,2.98397E3,2.7563242E2,6.03021E3,3.0058418E3,5.9381123E3,1.1722688E4,7.0957554E3],"split_indices":[19,19,19,19,19,19,31,19,19,19,19,19,31,22,22,19,19,19,14,19,19,19,22,29,39,14,20,14,33,29,19,19,19,19,19,31,39,1,19,14,14,14,14,14,14,14,14,14,31,14,20,14,33,19,14,14,39,20,29,14,33,20,33,0,0,0,0,0,0,0,0,0,0,0,0,0,0,0,0,0,0,0,0,0,0,0,0,0,0,0,0,0,0,0,0,0,0,0,0,0,0,0,0,0,0,0,0,0,0,0,0,0,0,0,0,0,0,0,0,0,0,0,0,0,0,0,0],"split_type":[0,0,0,0,0,0,0,0,0,0,0,0,0,0,0,0,0,0,0,0,0,0,0,0,0,0,0,0,0,0,0,0,0,0,0,0,0,0,0,0,0,0,0,0,0,0,0,0,0,0,0,0,0,0,0,0,0,0,0,0,0,0,0,0,0,0,0,0,0,0,0,0,0,0,0,0,0,0,0,0,0,0,0,0,0,0,0,0,0,0,0,0,0,0,0,0,0,0,0,0,0,0,0,0,0,0,0,0,0,0,0,0,0,0,0,0,0,0,0,0,0,0,0,0,0,0,0],"sum_hessian":[1.86426E5,1.58763E5,2.7663E4,1.1582E5,4.2943E4,2.1846E4,5.817E3,7.5082E4,4.0738E4,2.6164E4,1.6779E4,1.3823E4,8.023E3,4.413E3,1.404E3,4.5188E4,2.9894E4,1.6669E4,2.4069E4,1.3856E4,1.2308E4,1.023E4,6.549E3,8.767E3,5.056E3,4.365E3,3.658E3,3.024E3,1.389E3,7.68E2,6.36E2,2.8405E4,1.6783E4,1.5237E4,1.4657E4,9.438E3,7.231E3,3.227E3,2.0842E4,6.603E3,7.253E3,5.755E3,6.553E3,5.111E3,5.119E3,3.609E3,2.94E3,5.28E3,3.487E3,2.657E3,2.399E3,4.248E3,1.17E2,2.524E3,1.134E3,2.886E3,1.38E2,3.2E1,1.357E3,6.01E2,1.67E2,1.37E2,4.99E2,1.8063E4,1.0342E4,8.013E3,8.77E3,7.977E3,7.26E3,7.327E3,7.33E3,4.951E3,4.487E3,3.701E3,3.53E3,2.855E3,3.72E2,1.0421E4,1.0421E4,6.54E3,6.3E1,7.176E3,7.7E1,5.696E3,5.9E1,6.475E3,7.8E1,5.052E3,5.9E1,5.029E3,9E1,3.52E3,8.9E1,2.77E3,1.7E2,5.167E3,1.13E2,1.239E3,2.248E3,2.581E3,7.6E1,2.393E3,6E0,3.882E3,3.66E2,4.6E1,7.1E1,1.463E3,1.061E3,1.064E3,7E1,2.731E3,1.55E2,8.8E1,5E1,1.6E1,1.6E1,5.7E2,7.87E2,5.82E2,1.9E1,1E0,1.66E2,5E0,1.32E2,1E1,4.89E2],"tree_param":{"num_deleted":"0","num_feature":"48","num_nodes":"127","size_leaf_vector":"1"}},{"base_weights":[-1.0308012E1,-6.5778228E3,4.1673176E4,-1.0859812E4,4.8802305E3,3.2487404E4,8.5305E4,-1.321329E4,-6.546678E3,1.1089677E3,1.1393481E4,2.5362352E4,4.604262E4,7.085712E4,1.1569006E5,-1.4345337E4,-1.1530614E4,-8.7887705E3,-5.1408154E3,-9.38794E2,3.6315715E3,8.607388E3,1.4183691E4,2.2027238E4,3.1051926E4,4.065471E4,5.5058484E4,6.3169695E4,7.9671414E4,9.9114266E4,1.317383E5,-1.4784733E4,-1.360262E4,-1.2248177E4,-1.0731765E4,-9.479186E3,-8.310564E3,-5.6504414E3,-2.9428408E3,-2.0534268E3,7.012148E1,2.481453E3,4.9288296E3,3.050614E3,8.885806E3,1.4354443E3,1.4494481E4,4.0258276E3,2.2593969E4,2.8081736E4,3.468719E4,3.7590996E4,4.44828E4,5.3306043E4,6.720413E4,6.004973E4,6.765495E4,7.441341E4,8.454019E4,8.0547383E3,9.8442375E4,1.3364255E5,6.5073844E4,-7.47178E2,-7.23175E2,-6.961882E2,-6.6529004E2,-6.3295905E2,-5.952067E2,-5.556783E2,-5.173398E2,-1.1693841E2,-4.7536417E2,-1.17217E2,-4.1709836E2,-3.4277722E2,-2.2137962E2,-2.1324854E2,4.0617523E2,-3.220451E2,-9.524408E1,-4.7674518E2,7.098987E0,-2.0761356E2,1.3184338E2,1.3207122E0,2.5757516E2,-1.6620712E2,3.4845016E2,3.8107114E2,4.9650195E2,8.32914E2,-1.3901546E2,6.474665E2,8.139816E2,3.872688E0,1.3553323E3,1.0770432E3,1.4887784E3,1.2953422E3,1.464318E3,1.6944707E3,2.4289873E3,1.7321016E3,1.9500941E3,6.960221E2,2.2291206E3,2.5223413E3,2.8066172E3,3.764909E3,1.4979044E3,2.8903855E3,3.088519E3,3.3965176E3,2.270322E3,3.3336375E3,3.7755566E3,4.23948E3,2.773566E3,4.9573843E3,3.2115962E3,6.5305713E3,8.652062E3,1.438354E3,4.3998223E3],"categories":[],"categories_nodes":[],"categories_segments":[],"categories_sizes":[],"default_left":[0,0,0,0,0,0,0,0,0,0,0,0,0,0,0,0,0,0,0,0,0,0,0,0,0,0,0,0,0,0,0,0,0,0,0,0,0,0,0,0,0,0,0,0,0,0,0,0,0,0,0,0,0,0,0,0,0,0,0,0,0,0,0,0,0,0,0,0,0,0,0,0,0,0,0,0,0,0,0,0,0,0,0,0,0,0,0,0,0,0,0,0,0,0,0,0,0,0,0,0,0,0,0,0,0,0,0,0,0,0,0,0,0,0,0,0,0,0,0,0,0,0,0,0,0],"id":1,"left_children":[1,3,5,7,9,11,13,15,17,19,21,23,25,27,29,31,33,35,37,39,41,43,45,47,49,51,53,55,57,59,61,63,65,67,69,71,73,75,77,79,81,83,85,87,89,91,93,95,97,99,101,103,105,107,109,111,113,115,117,-1,119,121,123,-1,-1,-1,-1,-1,-1,-1,-1,-1,-1,-1,-1,-1,-1,-1,-1,-1,-1,-1,-1,-1,-1,-1,-1,-1,-1,-1,-1,-1,-1,-1,-1,-1,-1,-1,-1,-1,-1,-1,-1,-1,-1,-1,-1,-1,-1,-1,-1,-1,-1,-1,-1,-1,-1,-1,-1,-1,-1,-1,-1,-1,-1],"loss_changes":[5.12733E13,7.9385854E12,1.0214619E13,1.1955339E12,1.08120965E12,2.0329372E12,1.937888E12,1.449908E11,1.3102757E11,1.4401257E11,1.2535464E11,2.6130933E11,3.5018664E11,1.9871878E11,3.6654232E11,1.4664335E10,1.7439654E10,5.211685E9,2.8614263E10,1.730503E10,1.8624348E10,1.247196E10,3.1924945E10,8.874833E10,5.4092366E10,5.1632407E10,5.411963E10,1.8481152E10,2.9472326E10,1.3542359E10,8.295914E10,1.2436111E9,1.4299955E9,2.1314929E9,2.0181156E9,1.2919767E9,1.7556439E9,3.054515E10,7.045436E10,4.752589E9,5.576792E9,6.839124E9,6.4066847E9,9.689952E9,1.0081468E10,1.2432228E10,2.1500002E10,2.4330064E10,6.3205016E10,6.608388E9,2.3722983E10,9.179759E9,5.513675E9,1.6353067E10,9.964159E10,1.2897485E8,9.164554E8,7.437025E8,5.017436E8,0E0,1.0546577E10,6.1113106E10,1.5777997E10,0E0,0E0,0E0,0E0,0E0,0E0,0E0,0E0,0E0,0E0,0E0,0E0,0E0,0E0,0E0,0E0,0E0,0E0,0E0,0E0,0E0,0E0,0E0,0E0,0E0,0E0,0E0,0E0,0E0,0E0,0E0,0E0,0E0,0E0,0E0,0E0,0E0,0E0,0E0,0E0,0E0,0E0,0E0,0E0,0E0,0E0,0E0,0E0,0E0,0E0,0E0,0E0,0E0,0E0,0E0,0E0,0E0,0E0,0E0,0E0,0E0,0E0],"parents":[2147483647,0,0,1,1,2,2,3,3,4,4,5,5,6,6,7,7,8,8,9,9,10,10,11,11,12,12,13,13,14,14,15,15,16,16,17,17,18,18,19,19,20,20,21,21,22,22,23,23,24,24,25,25,26,26,27,27,28,28,29,29,30,30,31,31,32,32,33,33,34,34,35,35,36,36,37,37,38,38,39,39,40,40,41,41,42,42,43,43,44,44,45,45,46,46,47,47,48,48,49,49,50,50,51,51,52,52,53,53,54,54,55,55,56,56,57,57,58,58,60,60,61,61,62,62],"right_children":[2,4,6,8,10,12,14,16,18,20,22,24,26,28,30,32,34,36,38,40,42,44,46,48,50,52,54,56,58,60,62,64,66,68,70,72,74,76,78,80,82,84,86,88,90,92,94,96,98,100,102,104,106,108,110,112,114,116,118,-1,120,122,124,-1,-1,-1,-1,-1,-1,-1,-1,-1,-1,-1,-1,-1,-1,-1,-1,-1,-1,-1,-1,-1,-1,-1,-1,-1,-1,-1,-1,-1,-1,-1,-1,-1,-1,-1,-1,-1,-1,-1,-1,-1,-1,-1,-1,-1,-1,-1,-1,-1,-1,-1,-1,-1,-1,-1,-1,-1,-1,-1,-1,-1,-1],"split_conditions":[3.4301055E4,1.2476045E4,7.23815E4,5.284945E3,2.2342262E4,4.896731E4,1.11500586E5,2.127765E3,7.7387427E3,1.7136428E4,2.7425918E4,4.011615E4,6.668468E4,9.0802805E4,1.3688198E5,1.06568E3,3.6540376E3,6.2401426E3,8.2298386E-1,1.455501E4,1.9664162E4,2E0,1.623268E4,2.00177E4,4.8620082E4,5.9665906E4,1.1E1,8.386277E4,1.0009098E5,9.061064E4,1E0,3.6E2,1.4055925E3,2.7776975E3,4.4442876E3,2.728E2,3.5209858E3,9.8142E3,9E1,7.7129E3,5.84552E3,1.003455E4,2E0,1.648245E4,2.4445535E4,1.768792E4,3.1037432E4,1.2E1,1.1E1,4.483762E4,6.179469E4,5.4193336E4,3.7972812E4,7.2526664E4,-3.2162452E-16,7.948062E4,1E0,7.811761E4,1E0,8.0547383E3,1E0,1.2E1,6.346919E4,-7.47178E2,-7.23175E2,-6.961882E2,-6.6529004E2,-6.3295905E2,-5.952067E2,-5.556783E2,-5.173398E2,-1.1693841E2,-4.7536417E2,-1.17217E2,-4.1709836E2,-3.4277722E2,-2.2137962E2,-2.1324854E2,4.0617523E2,-3.220451E2,-9.524408E1,-4.7674518E2,7.098987E0,-2.0761356E2,1.3184338E2,1.3207122E0,2.5757516E2,-1.6620712E2,3.4845016E2,3.8107114E2,4.9650195E2,8.32914E2,-1.3901546E2,6.474665E2,8.139816E2,3.872688E0,1.3553323E3,1.0770432E3,1.4887784E3,1.2953422E3,1.464318E3,1.6944707E3,2.4289873E3,1.7321016E3,1.9500941E3,6.960221E2,2.2291206E3,2.5223413E3,2.8066172E3,3.764909E3,1.4979044E3,2.8903855E3,3.088519E3,3.3965176E3,2.270322E3,3.3336375E3,3.7755566E3,4.23948E3,2.773566E3,4.9573843E3,3.2115962E3,6.5305713E3,8.652062E3,1.438354E3,4.3998223E3],"split_indices":[27,27,29,27,27,29,27,27,27,27,27,29,27,27,27,30,27,27,46,27,27,13,29,29,27,27,13,27,27,31,46,27,27,27,27,24,35,27,1,29,29,29,13,29,27,22,27,13,13,27,27,27,35,35,45,27,46,23,46,0,46,13,24,0,0,0,0,0,0,0,0,0,0,0,0,0,0,0,0,0,0,0,0,0,0,0,0,0,0,0,0,0,0,0,0,0,0,0,0,0,0,0,0,0,0,0,0,0,0,0,0,0,0,0,0,0,0,0,0,0,0,0,0,0,0],"split_type":[0,0,0,0,0,0,0,0,0,0,0,0,0,0,0,0,0,0,0,0,0,0,0,0,0,0,0,0,0,0,0,0,0,0,0,0,0,0,0,0,0,0,0,0,0,0,0,0,0,0,0,0,0,0,0,0,0,0,0,0,0,0,0,0,0,0,0,0,0,0,0,0,0,0,0,0,0,0,0,0,0,0,0,0,0,0,0,0,0,0,0,0,0,0,0,0,0,0,0,0,0,0,0,0,0,0,0,0,0,0,0,0,0,0,0,0,0,0,0,0,0,0,0,0,0],"sum_hessian":[1.87293E5,1.61801E5,2.5492E4,1.17784E5,4.4017E4,2.106E4,4.432E3,7.6202E4,4.1582E4,2.7877E4,1.614E4,1.3806E4,7.254E3,3.006E3,1.426E3,4.555E4,3.0652E4,1.6023E4,2.5559E4,1.5387E4,1.249E4,8.078E3,8.062E3,8.707E3,5.099E3,4.544E3,2.71E3,1.61E3,1.396E3,7.05E2,7.21E2,2.8607E4,1.6943E4,1.614E4,1.4512E4,6.549E3,9.474E3,2.0747E4,4.812E3,7.31E3,8.077E3,6.622E3,5.868E3,3.86E2,7.692E3,1.92E2,7.87E3,2.66E2,8.441E3,2.811E3,2.288E3,2.53E3,2.014E3,2.373E3,3.37E2,9.58E2,6.52E2,6.79E2,7.17E2,5E0,7E2,7E2,2.1E1,1.9112E4,9.495E3,8.116E3,8.827E3,7.338E3,8.802E3,7.272E3,7.24E3,2.6E1,6.523E3,5E1,9.424E3,1.0447E4,1.03E4,4.299E3,5.13E2,2.38E2,7.072E3,5.9E1,8.018E3,1.51E2,6.471E3,2.55E2,5.613E3,1.47E2,2.39E2,3.483E3,4.209E3,4.1E1,1.51E2,4.223E3,3.647E3,2.28E2,3.8E1,7.365E3,1.076E3,1.01E3,1.801E3,2.167E3,1.21E2,8.27E2,1.703E3,7E0,2.007E3,1.189E3,1.184E3,2.76E2,6.1E1,4.31E2,5.27E2,6.42E2,1E1,9.2E1,5.87E2,7.09E2,8E0,6.84E2,1.6E1,6.54E2,4.6E1,9E0,1.2E1],"tree_param":{"num_deleted":"0","num_feature":"48","num_nodes":"125","size_leaf_vector":"1"}},{"base_weights":[2.5793585E1,-6.4799097E3,3.8465445E4,-1.0394297E4,4.1072656E3,2.8574805E4,7.462213E4,-1.2525048E4,-6.193007E3,7.536831E2,1.0147399E4,2.2149082E4,3.9494016E4,6.3466258E4,1.07802766E5,-1.3616067E4,-1.0868499E4,-8.325675E3,-4.9428833E3,-1.2494639E3,2.9958018E3,7.6739863E3,1.286261E4,1.8449766E4,2.6143252E4,3.5578254E4,4.6368727E4,5.7567598E4,7.5280836E4,9.3772875E4,1.242647E5,-1.4018432E4,-1.2847259E4,-1.1531225E4,-1.0068079E4,-8.835777E3,-7.8144995E3,-1.3489312E3,-5.469206E3,-2.0699565E3,-2.025508E1,1.9197164E3,4.363798E3,7.8479165E3,-2.9505093E3,1.1512723E4,1.480267E4,1.895548E4,2.3203398E3,2.3522477E4,2.8303736E4,3.313552E4,3.8783215E4,4.5384688E4,5.7427953E4,9.344345E4,5.716215E4,3.2397875E4,7.6102445E4,9.598361E4,4.302589E4,2.122751E4,1.2547597E5,-7.0929584E2,-6.840133E2,-6.5598755E2,-6.258774E2,-5.944137E2,-5.5729364E2,-5.185888E2,-4.82511E2,-4.4376617E2,-3.1910583E2,-4.0568655E2,-3.7497256E2,-1.8845628E2,1.9466768E2,-3.267438E2,-2.1681804E2,-1.10310646E2,1.5033691E1,2.7773168E0,-3.301681E2,1.00135025E2,-2.5164702E2,2.2341866E2,-2.45057E2,3.4033817E2,4.5593002E2,-3.8727E2,8.726438E1,5.886391E2,1.7515326E1,7.127358E2,1.2095448E3,8.882475E2,1.1234954E3,-1.5043295E2,5.608704E2,1.1259047E3,1.2667701E3,1.4353605E3,6.003263E2,1.3207103E3,1.683975E3,1.9699069E3,8.961588E2,7.664738E2,2.2798682E3,6.198401E3,2.3023953E3,1.103432E3,5.8654985E3,2.6666433E3,3.040594E3,9.6718097E2,2.0897742E3,3.555229E3,4.0528145E3,2.3343513E3,4.8866685E3,9.451186E2,3.372827E3,2.6568076E2,1.2507625E3,9.336689E3,6.178743E3],"categories":[],"categories_nodes":[],"categories_segments":[],"categories_sizes":[],"default_left":[0,0,0,0,0,0,0,0,0,0,0,0,0,0,0,0,0,0,0,0,0,0,0,0,0,0,0,0,0,0,0,0,0,0,0,0,0,0,0,0,0,0,0,0,0,0,0,0,0,0,0,0,0,0,0,0,0,0,0,0,0,0,0,0,0,0,0,0,0,0,0,0,0,0,0,0,0,0,0,0,0,0,0,0,0,0,0,0,0,0,0,0,0,0,0,0,0,0,0,0,0,0,0,0,0,0,0,0,0,0,0,0,0,0,0,0,0,0,0,0,0,0,0,0,0,0,0],"id":2,"left_children":[1,3,5,7,9,11,13,15,17,19,21,23,25,27,29,31,33,35,37,39,41,43,45,47,49,51,53,55,57,59,61,63,65,67,69,71,73,75,77,79,81,83,85,87,89,91,93,95,97,99,101,103,105,107,109,111,113,115,117,119,121,123,125,-1,-1,-1,-1,-1,-1,-1,-1,-1,-1,-1,-1,-1,-1,-1,-1,-1,-1,-1,-1,-1,-1,-1,-1,-1,-1,-1,-1,-1,-1,-1,-1,-1,-1,-1,-1,-1,-1,-1,-1,-1,-1,-1,-1,-1,-1,-1,-1,-1,-1,-1,-1,-1,-1,-1,-1,-1,-1,-1,-1,-1,-1,-1,-1],"loss_changes":[4.688243E13,6.6447375E12,9.70205E12,1.0478053E12,8.7667586E11,1.494246E12,2.1504448E12,1.4021978E11,1.0498199E11,1.24996444E11,1.036676E11,1.9776353E11,2.1082774E11,2.9979627E11,3.2670168E11,1.430415E10,1.6245588E10,3.726377E9,4.697378E10,1.4824739E10,1.932297E10,1.4969143E10,1.9114885E10,5.6801624E10,3.584924E10,3.8117835E10,2.8529132E10,3.705982E10,4.8621945E10,8.505944E10,8.108114E10,1.5461253E9,1.2821463E9,2.188378E9,1.6737894E9,6.495928E8,6.253445E8,4.028432E10,2.6125337E10,2.8480184E9,2.9370335E9,4.2518815E9,5.6230216E9,1.0466165E10,2.963092E9,1.2614631E10,1.5180694E10,2.7872199E10,1.0132606E10,4.7465103E9,2.2867083E10,9.578217E9,2.7142128E10,1.6124477E10,1.6845432E11,5.0218615E10,3.7077647E10,2.7492065E9,2.9442966E10,6.1078503E10,1.9352277E10,4.0957824E8,5.413588E10,0E0,0E0,0E0,0E0,0E0,0E0,0E0,0E0,0E0,0E0,0E0,0E0,0E0,0E0,0E0,0E0,0E0,0E0,0E0,0E0,0E0,0E0,0E0,0E0,0E0,0E0,0E0,0E0,0E0,0E0,0E0,0E0,0E0,0E0,0E0,0E0,0E0,0E0,0E0,0E0,0E0,0E0,0E0,0E0,0E0,0E0,0E0,0E0,0E0,0E0,0E0,0E0,0E0,0E0,0E0,0E0,0E0,0E0,0E0,0E0,0E0,0E0,0E0,0E0],"parents":[2147483647,0,0,1,1,2,2,3,3,4,4,5,5,6,6,7,7,8,8,9,9,10,10,11,11,12,12,13,13,14,14,15,15,16,16,17,17,18,18,19,19,20,20,21,21,22,22,23,23,24,24,25,25,26,26,27,27,28,28,29,29,30,30,31,31,32,32,33,33,34,34,35,35,36,36,37,37,38,38,39,39,40,40,41,41,42,42,43,43,44,44,45,45,46,46,47,47,48,48,49,49,50,50,51,51,52,52,53,53,54,54,55,55,56,56,57,57,58,58,59,59,60,60,61,61,62,62],"right_children":[2,4,6,8,10,12,14,16,18,20,22,24,26,28,30,32,34,36,38,40,42,44,46,48,50,52,54,56,58,60,62,64,66,68,70,72,74,76,78,80,82,84,86,88,90,92,94,96,98,100,102,104,106,108,110,112,114,116,118,120,122,124,126,-1,-1,-1,-1,-1,-1,-1,-1,-1,-1,-1,-1,-1,-1,-1,-1,-1,-1,-1,-1,-1,-1,-1,-1,-1,-1,-1,-1,-1,-1,-1,-1,-1,-1,-1,-1,-1,-1,-1,-1,-1,-1,-1,-1,-1,-1,-1,-1,-1,-1,-1,-1,-1,-1,-1,-1,-1,-1,-1,-1,-1,-1,-1,-1],"split_conditions":[3.2848E4,1.216895E4,7.294965E4,5.40633E3,2.185554E4,4.9899586E4,1.11500586E5,2.18922E3,7.62599E3,1.648759E4,2.677983E4,3.9815094E4,6.179469E4,9.0802805E4,1.3607189E5,9.33E2,3.80442E3,6.45919E3,6E0,1.460845E4,1.922174E4,5.2E1,3.0390775E4,5.2E1,4.372344E4,5.611976E4,4.7E1,4.831087E4,6.438447E4,5.2E1,6.982088E4,3.89E2,1.57572E3,2.99E3,4.69127E3,1.015694E4,7.429062E3,2.00898E5,9.7027E3,1.691885E4,5.2E1,5.2E1,5.2E1,2.437197E4,1.08554E4,5.2E1,4.7E1,3.885187E4,1.955103E4,4.139174E4,5.2E1,3.29249E4,5.2E1,4.606141E4,1.2E1,2.410716E4,7.9319266E4,3E0,1.0009098E5,8.496138E4,6.075536E4,4.396675E4,8.323929E4,-7.0929584E2,-6.840133E2,-6.5598755E2,-6.258774E2,-5.944137E2,-5.5729364E2,-5.185888E2,-4.82511E2,-4.4376617E2,-3.1910583E2,-4.0568655E2,-3.7497256E2,-1.8845628E2,1.9466768E2,-3.267438E2,-2.1681804E2,-1.10310646E2,1.5033691E1,2.7773168E0,-3.301681E2,1.00135025E2,-2.5164702E2,2.2341866E2,-2.45057E2,3.4033817E2,4.5593002E2,-3.8727E2,8.726438E1,5.886391E2,1.7515326E1,7.127358E2,1.2095448E3,8.882475E2,1.1234954E3,-1.5043295E2,5.608704E2,1.1259047E3,1.2667701E3,1.4353605E3,6.003263E2,1.3207103E3,1.683975E3,1.9699069E3,8.961588E2,7.664738E2,2.2798682E3,6.198401E3,2.3023953E3,1.103432E3,5.8654985E3,2.6666433E3,3.040594E3,9.6718097E2,2.0897742E3,3.555229E3,4.0528145E3,2.3343513E3,4.8866685E3,9.451186E2,3.372827E3,2.6568076E2,1.2507625E3,9.336689E3,6.178743E3],"split_indices":[19,19,27,19,19,27,27,19,19,19,19,27,27,27,22,19,19,19,14,19,19,14,27,14,19,19,14,35,19,14,19,19,19,19,19,26,39,3,19,26,14,14,14,19,41,14,14,19,41,25,14,41,14,19,13,25,35,14,27,19,33,24,39,0,0,0,0,0,0,0,0,0,0,0,0,0,0,0,0,0,0,0,0,0,0,0,0,0,0,0,0,0,0,0,0,0,0,0,0,0,0,0,0,0,0,0,0,0,0,0,0,0,0,0,0,0,0,0,0,0,0,0,0,0,0,0,0],"split_type":[0,0,0,0,0,0,0,0,0,0,0,0,0,0,0,0,0,0,0,0,0,0,0,0,0,0,0,0,0,0,0,0,0,0,0,0,0,0,0,0,0,0,0,0,0,0,0,0,0,0,0,0,0,0,0,0,0,0,0,0,0,0,0,0,0,0,0,0,0,0,0,0,0,0,0,0,0,0,0,0,0,0,0,0,0,0,0,0,0,0,0,0,0,0,0,0,0,0,0,0,0,0,0,0,0,0,0,0,0,0,0,0,0,0,0,0,0,0,0,0,0,0,0,0,0,0,0],"sum_hessian":[1.8747E5,1.60335E5,2.7135E4,1.17056E5,4.3279E4,2.1308E4,5.827E3,7.7665E4,3.9391E4,2.7829E4,1.545E4,1.3416E4,7.892E3,4.363E3,1.464E3,4.6821E4,3.0844E4,1.4555E4,2.4836E4,1.4698E4,1.3131E4,8.087E3,7.363E3,6.968E3,6.448E3,5.032E3,2.86E3,2.914E3,1.449E3,7.94E2,6.7E2,3.0724E4,1.6097E4,1.6866E4,1.3978E4,7.277E3,7.278E3,3.173E3,2.1663E4,8.814E3,5.884E3,7.351E3,5.78E3,7.957E3,1.3E2,4.346E3,3.017E3,6.756E3,2.12E2,2.919E3,3.529E3,2.862E3,2.17E3,2.631E3,2.29E2,3E1,2.884E3,2.8E1,1.421E3,7.6E2,3.4E1,8E0,6.62E2,2.052E4,1.0204E4,8.792E3,7.305E3,8.739E3,8.127E3,8.081E3,5.897E3,7.159E3,1.18E2,3.72E3,3.558E3,2.171E3,1.002E3,1.116E4,1.0503E4,8.335E3,4.79E2,5.818E3,6.6E1,7.265E3,8.6E1,5.716E3,6.4E1,4.377E3,3.58E3,6.4E1,6.6E1,4.247E3,9.9E1,2.853E3,1.64E2,5.051E3,1.705E3,1.33E2,7.9E1,1.887E3,1.032E3,3.443E3,8.6E1,2.18E2,2.644E3,2.107E3,6.3E1,1.9E1,2.612E3,3.2E1,1.97E2,8E0,2.2E1,1.415E3,1.469E3,1.3E1,1.5E1,7.15E2,7.06E2,2.7E1,7.33E2,1.8E1,1.6E1,2E0,6E0,1.7E1,6.45E2],"tree_param":{"num_deleted":"0","num_feature":"48","num_nodes":"127","size_leaf_vector":"1"}},{"base_weights":[-5.735984E0,-6.2634023E3,3.5891383E4,-9.963276E3,3.4226504E3,2.6781654E4,7.067393E4,-1.1963878E4,-6.0901787E3,1.611218E2,8.665094E3,2.0850055E4,3.733875E4,5.988305E4,1.0269273E5,-1.2934256E4,-1.0404869E4,-8.0118994E3,-4.7641235E3,-1.585927E3,2.2277585E3,6.4576226E3,1.1542305E4,1.7434756E4,2.4978045E4,3.297101E4,4.2544234E4,5.4286125E4,7.1008055E4,8.801931E4,1.1748862E5,-1.3317544E4,-1.2203227E4,-1.0961975E4,-9.641349E3,-8.507428E3,-7.4202773E3,-1.1360234E3,-5.339927E3,-2.629727E3,-7.316069E2,1.164626E3,3.176853E3,5.0421104E3,7.5951235E3,9.566965E3,1.2629414E4,1.7830002E4,2.429072E3,2.2857973E4,2.7507531E4,3.0752922E4,3.529401E4,4.29532E4,2.0307328E4,2.0466041E4,5.468423E4,3.029133E4,7.1883E4,3.5929766E4,8.928217E4,3.812581E4,1.19356195E5,-6.7435114E2,-6.506532E2,-6.2308856E2,-5.944102E2,-5.6634717E2,-5.313898E2,-4.9635898E2,-4.648549E2,-4.4121124E2,-4.099366E2,-3.7353323E2,-2.5538806E2,-1.6330531E2,7.730289E2,-3.3075482E2,-2.2783646E2,-1.2877336E2,-4.07174E2,-3.306857E1,-3.481367E2,6.1395844E1,-2.770029E2,1.637431E2,-2.1661339E2,2.667082E2,-2.4097356E2,3.161446E2,4.1247336E2,4.9344196E2,-8.333355E1,6.134761E2,8.497204E2,8.367386E2,1.0790511E3,-1.536516E2,4.999149E2,1.1168065E3,1.5389808E3,1.3979755E3,5.814186E2,7.9504144E2,1.5530643E3,1.7961737E3,7.996497E2,2.1065984E3,2.7292498E3,3.7979874E2,1.5856053E3,4.0242087E2,1.3297435E3,2.577761E3,2.8977556E3,1.1828325E3,2.5303545E3,3.6259512E3,1.689874E3,2.1827718E2,1.9693203E3,4.523597E3,2.0500022E3,5.50141E2,2.719282E3,6.082755E3,2.7452861E3],"categories":[],"categories_nodes":[],"categories_segments":[],"categories_sizes":[],"default_left":[0,0,0,0,0,0,0,0,0,0,0,0,0,0,0,0,0,0,0,0,0,0,0,0,0,0,0,0,0,0,0,0,0,0,0,0,0,0,0,0,0,0,0,0,0,0,0,0,0,0,0,0,0,0,0,0,0,0,0,0,0,0,0,0,0,0,0,0,0,0,0,0,0,0,0,0,0,0,0,0,0,0,0,0,0,0,0,0,0,0,0,0,0,0,0,0,0,0,0,0,0,0,0,0,0,0,0,0,0,0,0,0,0,0,0,0,0,0,0,0,0,0,0,0,0,0,0],"id":3,"left_children":[1,3,5,7,9,11,13,15,17,19,21,23,25,27,29,31,33,35,37,39,41,43,45,47,49,51,53,55,57,59,61,63,65,67,69,71,73,75,77,79,81,83,85,87,89,91,93,95,97,99,101,103,105,107,109,111,113,115,117,119,121,123,125,-1,-1,-1,-1,-1,-1,-1,-1,-1,-1,-1,-1,-1,-1,-1,-1,-1,-1,-1,-1,-1,-1,-1,-1,-1,-1,-1,-1,-1,-1,-1,-1,-1,-1,-1,-1,-1,-1,-1,-1,-1,-1,-1,-1,-1,-1,-1,-1,-1,-1,-1,-1,-1,-1,-1,-1,-1,-1,-1,-1,-1,-1,-1,-1],"loss_changes":[4.198623E13,5.704059E12,8.7896925E12,8.923392E11,7.5222476E11,1.3761826E12,1.9833039E12,1.1475406E11,9.9931914E10,9.792793E10,1.07091984E11,1.9808282E11,1.784173E11,2.6444877E11,3.0446348E11,1.2952011E10,1.2289311E10,4.63215E9,4.8491758E10,1.3104861E10,1.2533293E10,1.5338635E10,1.5606809E10,4.567833E10,3.3547878E10,2.1096825E10,3.1912362E10,3.75364E10,4.9086464E10,4.4944065E10,1.0201701E11,1.4082376E9,1.1639194E9,1.9334431E9,1.1180442E9,7.7941965E8,8.133673E8,1.12505635E11,1.9979043E10,1.9580682E9,3.533329E9,2.494312E9,4.8450396E9,1.2289204E10,4.3541463E9,8.846967E9,7.207846E9,3.0495736E10,8.318412E9,1.3669237E10,2.0495335E10,9.627369E9,2.4890049E10,3.1506039E10,9.472119E9,2.4496435E9,2.6047676E10,3.1160402E9,3.1655985E10,1.9010765E9,3.7305713E10,7.3398784E9,9.733302E10,0E0,0E0,0E0,0E0,0E0,0E0,0E0,0E0,0E0,0E0,0E0,0E0,0E0,0E0,0E0,0E0,0E0,0E0,0E0,0E0,0E0,0E0,0E0,0E0,0E0,0E0,0E0,0E0,0E0,0E0,0E0,0E0,0E0,0E0,0E0,0E0,0E0,0E0,0E0,0E0,0E0,0E0,0E0,0E0,0E0,0E0,0E0,0E0,0E0,0E0,0E0,0E0,0E0,0E0,0E0,0E0,0E0,0E0,0E0,0E0,0E0,0E0,0E0,0E0],"parents":[2147483647,0,0,1,1,2,2,3,3,4,4,5,5,6,6,7,7,8,8,9,9,10,10,11,11,12,12,13,13,14,14,15,15,16,16,17,17,18,18,19,19,20,20,21,21,22,22,23,23,24,24,25,25,26,26,27,27,28,28,29,29,30,30,31,31,32,32,33,33,34,34,35,35,36,36,37,37,38,38,39,39,40,40,41,41,42,42,43,43,44,44,45,45,46,46,47,47,48,48,49,49,50,50,51,51,52,52,53,53,54,54,55,55,56,56,57,57,58,58,59,59,60,60,61,61,62,62],"right_children":[2,4,6,8,10,12,14,16,18,20,22,24,26,28,30,32,34,36,38,40,42,44,46,48,50,52,54,56,58,60,62,64,66,68,70,72,74,76,78,80,82,84,86,88,90,92,94,96,98,100,102,104,106,108,110,112,114,116,118,120,122,124,126,-1,-1,-1,-1,-1,-1,-1,-1,-1,-1,-1,-1,-1,-1,-1,-1,-1,-1,-1,-1,-1,-1,-1,-1,-1,-1,-1,-1,-1,-1,-1,-1,-1,-1,-1,-1,-1,-1,-1,-1,-1,-1,-1,-1,-1,-1,-1,-1,-1,-1,-1,-1,-1,-1,-1,-1,-1,-1,-1,-1,-1,-1,-1,-1],"split_conditions":[3.219329E4,1.18043E4,7.294965E4,5.217E3,2.07968E4,4.9899586E4,1.11500586E5,2.18922E3,7.62599E3,1.600119E4,2.62644E4,3.9815094E4,5.9665906E4,9.0802805E4,1.3688198E5,9.33E2,3.80442E3,6.45919E3,6E0,1.354066E4,1.805302E4,2.2726428E4,3.001302E4,5.2E1,4.485388E4,5.437333E4,5.2E1,5.611976E4,6.706015E4,7.279629E4,1.0008969E5,3.5874E2,1.57572E3,2.92E3,4.810532E3,5.8022324E3,1.124783E4,9E1,9.00462E3,5.2E1,5.2E1,5.2E1,5.2E1,5.2E1,2.347736E4,5.2E1,4.7E1,3.885187E4,1.683256E4,4.7E1,5.2E1,4.067319E4,5.2E1,4.7E1,4.780848E4,2.588862E4,7.926334E4,5E1,5.2E1,8E0,5.2E1,8E0,5.2E1,-6.7435114E2,-6.506532E2,-6.2308856E2,-5.944102E2,-5.6634717E2,-5.313898E2,-4.9635898E2,-4.648549E2,-4.4121124E2,-4.099366E2,-3.7353323E2,-2.5538806E2,-1.6330531E2,7.730289E2,-3.3075482E2,-2.2783646E2,-1.2877336E2,-4.07174E2,-3.306857E1,-3.481367E2,6.1395844E1,-2.770029E2,1.637431E2,-2.1661339E2,2.667082E2,-2.4097356E2,3.161446E2,4.1247336E2,4.9344196E2,-8.333355E1,6.134761E2,8.497204E2,8.367386E2,1.0790511E3,-1.536516E2,4.999149E2,1.1168065E3,1.5389808E3,1.3979755E3,5.814186E2,7.9504144E2,1.5530643E3,1.7961737E3,7.996497E2,2.1065984E3,2.7292498E3,3.7979874E2,1.5856053E3,4.0242087E2,1.3297435E3,2.577761E3,2.8977556E3,1.1828325E3,2.5303545E3,3.6259512E3,1.689874E3,2.1827718E2,1.9693203E3,4.523597E3,2.0500022E3,5.50141E2,2.719282E3,6.082755E3,2.7452861E3],"split_indices":[19,19,27,19,19,27,27,19,19,19,19,27,27,27,27,19,19,19,14,19,19,27,30,14,19,19,14,19,19,19,19,19,19,19,39,27,26,1,19,14,14,14,14,14,19,14,14,19,41,14,14,19,14,14,25,41,22,14,14,1,14,1,14,0,0,0,0,0,0,0,0,0,0,0,0,0,0,0,0,0,0,0,0,0,0,0,0,0,0,0,0,0,0,0,0,0,0,0,0,0,0,0,0,0,0,0,0,0,0,0,0,0,0,0,0,0,0,0,0,0,0,0,0,0,0,0,0],"split_type":[0,0,0,0,0,0,0,0,0,0,0,0,0,0,0,0,0,0,0,0,0,0,0,0,0,0,0,0,0,0,0,0,0,0,0,0,0,0,0,0,0,0,0,0,0,0,0,0,0,0,0,0,0,0,0,0,0,0,0,0,0,0,0,0,0,0,0,0,0,0,0,0,0,0,0,0,0,0,0,0,0,0,0,0,0,0,0,0,0,0,0,0,0,0,0,0,0,0,0,0,0,0,0,0,0,0,0,0,0,0,0,0,0,0,0,0,0,0,0,0,0,0,0,0,0,0,0],"sum_hessian":[1.86909E5,1.59164E5,2.7745E4,1.15171E5,4.3993E4,2.1988E4,5.757E3,7.5942E4,3.9229E4,2.7121E4,1.6872E4,1.408E4,7.908E3,4.308E3,1.449E3,4.6803E4,2.9139E4,1.6015E4,2.3214E4,1.4697E4,1.2424E4,9.549E3,7.323E3,7.708E3,6.372E3,4.304E3,3.604E3,2.87E3,1.438E3,7.31E2,7.18E2,3.0693E4,1.611E4,1.6839E4,1.23E4,8.708E3,7.307E3,3.18E3,2.0034E4,6.614E3,8.083E3,5.861E3,6.563E3,4.257E3,5.292E3,2.603E3,4.72E3,7.51E3,1.98E2,3.472E3,2.9E3,2.209E3,2.095E3,3.538E3,6.6E1,3.4E1,2.836E3,3.1E1,1.407E3,1.8E1,7.13E2,1.7E1,7.01E2,1.969E4,1.1003E4,8.827E3,7.283E3,8.033E3,8.806E3,6.705E3,5.595E3,4.284E3,4.424E3,7.149E3,1.58E2,2.819E3,3.61E2,7.62E3,1.2414E4,6.551E3,6.3E1,7.994E3,8.9E1,5.807E3,5.4E1,6.479E3,8.4E1,4.135E3,1.22E2,1.801E3,3.491E3,2.535E3,6.8E1,4.364E3,3.56E2,5.817E3,1.693E3,1.15E2,8.3E1,3.261E3,2.11E2,2.819E3,8.1E1,4.6E1,2.163E3,2.028E3,6.7E1,3.309E3,2.29E2,3.2E1,3.4E1,1.2E1,2.2E1,1.458E3,1.378E3,2.5E1,6E0,1.383E3,2.4E1,2E0,1.6E1,6.95E2,1.8E1,7E0,1E1,6.76E2,2.5E1],"tree_param":{"num_deleted":"0","num_feature":"48","num_nodes":"127","size_leaf_vector":"1"}},{"base_weights":[-5.8441916E0,-5.7666875E3,3.52923E4,-9.299988E3,4.0943833E3,2.7742725E4,7.345369E4,-1.1258892E4,-5.3787163E3,9.97584E2,9.518791E3,2.116145E4,3.9275906E4,6.1184375E4,9.81633E4,-1.2272023E4,-9.722461E3,-7.421789E3,-4.3451167E3,-7.931765E2,3.0900085E3,7.46353E3,1.2298686E4,1.8153355E4,2.594254E4,3.5052645E4,4.65781E4,5.4894832E4,6.849677E4,8.359348E4,1.13278195E5,-1.26383545E4,-1.1552061E4,-1.0376768E4,-9.03665E3,-7.72472E3,-6.825715E3,-1.2348885E3,-4.796609E3,-1.7182166E3,1.3860857E2,1.9639639E3,4.0924817E3,6.275697E3,8.781692E3,1.2484991E4,5.161805E2,1.5717489E4,2.024811E4,2.6557355E4,7.808248E3,3.1908773E4,3.7425176E4,2.6375371E4,4.7022676E4,2.7778135E4,5.5902715E4,6.2819574E4,7.354985E4,8.713085E4,2.9958492E4,1.15282E5,5.1867277E4,-6.3932715E2,-6.14594E2,-5.909446E2,-5.64116E2,-5.347333E2,-5.016673E2,-4.698414E2,-4.3360147E2,-4.033552E2,-3.7293835E2,-3.4415646E2,-2.3610709E2,-1.4227174E2,5.249938E2,-2.8861E2,-1.8114786E2,-8.308094E1,-3.813116E2,-3.2951806E0,1.01406425E2,1.02376884E2,-2.3949211E2,2.0993318E2,-2.1386954E2,3.26306E2,-1.2912108E2,4.2840894E2,6.684023E2,5.619477E2,7.01288E2,-1.4482382E2,3.7635284E2,8.083629E2,7.0864006E1,9.925096E2,1.2002349E3,1.1600284E3,1.4134238E3,1.9244753E1,7.6136383E2,1.6088217E3,8.768371E2,1.8884785E3,9.0176105E2,7.6103296E2,1.6483275E3,2.3098853E3,2.8746294E3,8.878089E2,1.629279E3,2.770419E3,3.958452E3,2.7698452E3,3.238261E3,5.903317E3,3.6465356E3,4.228568E3,5.8124585E3,6.5432654E2,2.7066833E3,5.6181973E3,8.63271E3,1.2109102E3,3.8749082E3],"categories":[],"categories_nodes":[],"categories_segments":[],"categories_sizes":[],"default_left":[0,0,0,0,0,0,0,0,0,0,0,0,0,0,0,0,0,0,0,0,0,0,0,0,0,0,0,0,0,0,0,0,0,0,0,0,0,0,0,0,0,0,0,0,0,0,0,0,0,0,0,0,0,0,0,0,0,0,0,0,0,0,0,0,0,0,0,0,0,0,0,0,0,0,0,0,0,0,0,0,0,0,0,0,0,0,0,0,0,0,0,0,0,0,0,0,0,0,0,0,0,0,0,0,0,0,0,0,0,0,0,0,0,0,0,0,0,0,0,0,0,0,0,0,0,0,0],"id":4,"left_children":[1,3,5,7,9,11,13,15,17,19,21,23,25,27,29,31,33,35,37,39,41,43,45,47,49,51,53,55,57,59,61,63,65,67,69,71,73,75,77,79,81,83,85,87,89,91,93,95,97,99,101,103,105,107,109,111,113,115,117,119,121,123,125,-1,-1,-1,-1,-1,-1,-1,-1,-1,-1,-1,-1,-1,-1,-1,-1,-1,-1,-1,-1,-1,-1,-1,-1,-1,-1,-1,-1,-1,-1,-1,-1,-1,-1,-1,-1,-1,-1,-1,-1,-1,-1,-1,-1,-1,-1,-1,-1,-1,-1,-1,-1,-1,-1,-1,-1,-1,-1,-1,-1,-1,-1,-1,-1],"loss_changes":[3.802834E13,5.601711E12,7.5574773E12,9.091322E11,7.124233E11,1.6619762E12,1.3076288E12,1.2274526E11,8.323924E10,1.01168546E11,8.796897E10,2.0015743E11,2.4378553E11,1.295243E11,3.0677035E11,1.2397838E10,1.3982761E10,2.3390454E9,3.6768416E10,1.254058E10,1.4047019E10,1.3823771E10,1.4371783E10,4.3390075E10,5.9831484E10,3.644326E10,2.4923079E10,4.1164997E10,3.3705951E10,1.3683917E11,8.040481E10,1.4611907E9,1.0218373E9,1.6445604E9,1.9310838E9,7.389184E8,5.075927E8,6.2794703E10,2.616302E10,2.4286372E9,2.8013637E9,3.3208197E9,5.8711327E9,1.0367353E10,3.9973028E9,1.2221612E10,2.4861507E9,2.547902E10,6.402605E9,2.9258416E10,9.797322E9,7.8103183E9,1.8484298E10,4.277207E9,2.1951939E10,2.215846E9,1.2934185E10,5.5970365E9,1.0710155E10,4.1518367E10,1.846206E10,9.427537E10,1.5131214E10,0E0,0E0,0E0,0E0,0E0,0E0,0E0,0E0,0E0,0E0,0E0,0E0,0E0,0E0,0E0,0E0,0E0,0E0,0E0,0E0,0E0,0E0,0E0,0E0,0E0,0E0,0E0,0E0,0E0,0E0,0E0,0E0,0E0,0E0,0E0,0E0,0E0,0E0,0E0,0E0,0E0,0E0,0E0,0E0,0E0,0E0,0E0,0E0,0E0,0E0,0E0,0E0,0E0,0E0,0E0,0E0,0E0,0E0,0E0,0E0,0E0,0E0,0E0,0E0],"parents":[2147483647,0,0,1,1,2,2,3,3,4,4,5,5,6,6,7,7,8,8,9,9,10,10,11,11,12,12,13,13,14,14,15,15,16,16,17,17,18,18,19,19,20,20,21,21,22,22,23,23,24,24,25,25,26,26,27,27,28,28,29,29,30,30,31,31,32,32,33,33,34,34,35,35,36,36,37,37,38,38,39,39,40,40,41,41,42,42,43,43,44,44,45,45,46,46,47,47,48,48,49,49,50,50,51,51,52,52,53,53,54,54,55,55,56,56,57,57,58,58,59,59,60,60,61,61,62,62],"right_children":[2,4,6,8,10,12,14,16,18,20,22,24,26,28,30,32,34,36,38,40,42,44,46,48,50,52,54,56,58,60,62,64,66,68,70,72,74,76,78,80,82,84,86,88,90,92,94,96,98,100,102,104,106,108,110,112,114,116,118,120,122,124,126,-1,-1,-1,-1,-1,-1,-1,-1,-1,-1,-1,-1,-1,-1,-1,-1,-1,-1,-1,-1,-1,-1,-1,-1,-1,-1,-1,-1,-1,-1,-1,-1,-1,-1,-1,-1,-1,-1,-1,-1,-1,-1,-1,-1,-1,-1,-1,-1,-1,-1,-1,-1,-1,-1,-1,-1,-1,-1,-1,-1,-1,-1,-1,-1],"split_conditions":[3.356778E4,1.255883E4,7.948062E4,5.60276E3,2.223585E4,5.2628137E4,1.122939E5,2.25288E3,7.62599E3,1.69898E4,2.788056E4,4.372344E4,6.668468E4,9.146703E4,1.3688198E5,9.81E2,3.80442E3,6.91304E3,6E0,1.460845E4,1.922174E4,2.4888818E4,5.2E1,3.7254703E4,5.2E1,5.7797586E4,5.611976E4,5.981999E4,1.0009098E5,5.2E1,5.2E1,4.5363E2,1.57572E3,3.061655E3,4.68558E3,6.130705E3,1.124783E4,9E1,1.000671E4,5.2E1,1.813408E4,5.2E1,5.2E1,5.2E1,4.7E1,3.088233E4,2.283363E4,5.2E1,4.431915E4,4.913239E4,2.39998E4,5.2E1,5.2E1,3.741953E4,4.7E1,8E0,1.0568861E5,8.409764E4,7.23815E4,4.9E1,6.075536E4,5E1,6.346919E4,-6.3932715E2,-6.14594E2,-5.909446E2,-5.64116E2,-5.347333E2,-5.016673E2,-4.698414E2,-4.3360147E2,-4.033552E2,-3.7293835E2,-3.4415646E2,-2.3610709E2,-1.4227174E2,5.249938E2,-2.8861E2,-1.8114786E2,-8.308094E1,-3.813116E2,-3.2951806E0,1.01406425E2,1.02376884E2,-2.3949211E2,2.0993318E2,-2.1386954E2,3.26306E2,-1.2912108E2,4.2840894E2,6.684023E2,5.619477E2,7.01288E2,-1.4482382E2,3.7635284E2,8.083629E2,7.0864006E1,9.925096E2,1.2002349E3,1.1600284E3,1.4134238E3,1.9244753E1,7.6136383E2,1.6088217E3,8.768371E2,1.8884785E3,9.0176105E2,7.6103296E2,1.6483275E3,2.3098853E3,2.8746294E3,8.878089E2,1.629279E3,2.770419E3,3.958452E3,2.7698452E3,3.238261E3,5.903317E3,3.6465356E3,4.228568E3,5.8124585E3,6.5432654E2,2.7066833E3,5.6181973E3,8.63271E3,1.2109102E3,3.8749082E3],"split_indices":[19,19,27,19,19,27,19,19,19,19,19,19,27,19,27,19,19,19,14,19,19,27,14,27,14,27,19,19,27,14,14,19,19,27,27,27,26,1,19,14,26,14,14,14,14,19,24,14,26,30,33,14,14,33,14,1,26,22,29,14,33,14,24,0,0,0,0,0,0,0,0,0,0,0,0,0,0,0,0,0,0,0,0,0,0,0,0,0,0,0,0,0,0,0,0,0,0,0,0,0,0,0,0,0,0,0,0,0,0,0,0,0,0,0,0,0,0,0,0,0,0,0,0,0,0,0,0],"split_type":[0,0,0,0,0,0,0,0,0,0,0,0,0,0,0,0,0,0,0,0,0,0,0,0,0,0,0,0,0,0,0,0,0,0,0,0,0,0,0,0,0,0,0,0,0,0,0,0,0,0,0,0,0,0,0,0,0,0,0,0,0,0,0,0,0,0,0,0,0,0,0,0,0,0,0,0,0,0,0,0,0,0,0,0,0,0,0,0,0,0,0,0,0,0,0,0,0,0,0,0,0,0,0,0,0,0,0,0,0,0,0,0,0,0,0,0,0,0,0,0,0,0,0,0,0,0,0],"sum_hessian":[1.8701E5,1.60772E5,2.6238E4,1.18362E5,4.241E4,2.1906E4,4.332E3,7.893E4,3.9432E4,2.6998E4,1.5412E4,1.3949E4,7.957E3,2.897E3,1.435E3,4.7561E4,3.1369E4,1.3245E4,2.6187E4,1.4548E4,1.245E4,8.863E3,6.549E3,8.565E3,5.384E3,5.045E3,2.912E3,1.562E3,1.335E3,7.34E2,7.01E2,3.1511E4,1.605E4,1.6046E4,1.5323E4,8.774E3,4.471E3,3.32E3,2.2867E4,7.3E3,7.248E3,5.865E3,6.585E3,4.665E3,4.198E3,6.447E3,1.02E2,3.964E3,4.601E3,5.207E3,1.77E2,2.176E3,2.869E3,6.4E1,2.848E3,5.7E1,1.505E3,6.35E2,7E2,6.88E2,4.6E1,6.78E2,2.3E1,2.2046E4,9.465E3,8.047E3,8.003E3,8.317E3,7.729E3,7.696E3,7.627E3,3.823E3,4.951E3,4.35E3,1.21E2,2.92E3,4E2,1.2485E4,1.0382E4,7.232E3,6.8E1,6.541E3,7.07E2,5.794E3,7.1E1,6.503E3,8.2E1,4.537E3,1.28E2,4.014E3,1.84E2,3.569E3,2.878E3,6.9E1,3.3E1,3.843E3,1.21E2,4.166E3,4.35E2,1.763E3,3.444E3,8.9E1,8.8E1,2.135E3,4.1E1,2.818E3,5.1E1,2.5E1,3.9E1,2.645E3,2.03E2,2E1,3.7E1,1.477E3,2.8E1,1.38E2,4.97E2,7E0,6.93E2,6.36E2,5.2E1,2.8E1,1.8E1,6.48E2,3E1,1.2E1,1.1E1],"tree_param":{"num_deleted":"0","num_feature":"48","num_nodes":"127","size_leaf_vector":"1"}},{"base_weights":[-3.2593445E1,-5.5607686E3,3.2916816E4,-8.91157E3,3.4978928E3,2.5218674E4,6.601872E4,-1.0718976E4,-5.2483047E3,7.420572E2,8.865072E3,1.9354768E4,3.5452812E4,5.5802266E4,9.437481E4,-1.1675791E4,-9.291729E3,-7.0961084E3,-4.2223364E3,-1.01535284E3,2.787838E3,6.929558E3,1.1219885E4,1.64425E4,2.335707E4,3.1018451E4,4.0811777E4,4.901868E4,6.595163E4,8.0733875E4,1.0982325E5,-1.2056862E4,-1.1077527E4,-9.880533E3,-8.616355E3,-7.536039E3,-6.707249E3,-1.1073275E3,-4.699473E3,-1.8028693E3,4.20943E1,1.7413665E3,3.8487092E3,7.080304E3,-2.6260288E3,1.1389506E4,2.5911005E2,1.4255962E4,1.8054607E4,2.0444275E4,2.5345379E4,3.1597775E4,1.2533946E4,3.6526168E4,4.3321934E4,5.1219805E4,1.5604468E4,6.324955E4,7.753358E4,7.264228E4,8.621819E4,9.827594E3,1.07955445E5,-6.1029474E2,-5.920182E2,-5.6852844E2,-5.4012134E2,-5.084715E2,-4.751485E2,-4.4574448E2,-4.123834E2,-3.7910995E2,-2.763453E2,-3.3765466E2,-2.15968E2,-1.4191954E2,6.2743567E2,-2.784987E2,-1.8208945E2,-1.3155214E2,-7.341678E1,5.141353E0,-2.9726608E2,9.140022E1,-2.3369144E2,1.9777417E2,-2.3206042E2,3.397499E2,5.760281E2,-3.519891E2,9.497334E1,5.512185E2,8.2506244E2,-2.2917159E2,2.693511E2,7.266818E2,1.0932867E2,8.771968E2,1.1012211E3,1.0457411E3,3.2490182E2,1.2430704E3,1.5765444E3,1.4892977E3,1.7772692E3,9.780225E1,1.2212012E3,4.3561923E2,1.8333108E3,2.0830857E3,2.3492332E3,2.526994E3,5.8111807E3,2.5067659E2,1.4821078E3,3.0201426E3,3.3693403E3,3.6480867E3,5.2244165E3,3.3084177E3,3.7927407E3,6.2226626E3,4.258937E3,5.472952E3,2.7474954E3],"categories":[],"categories_nodes":[],"categories_segments":[],"categories_sizes":[],"default_left":[0,0,0,0,0,0,0,0,0,0,0,0,0,0,0,0,0,0,0,0,0,0,0,0,0,0,0,0,0,0,0,0,0,0,0,0,0,0,0,0,0,0,0,0,0,0,0,0,0,0,0,0,0,0,0,0,0,0,0,0,0,0,0,0,0,0,0,0,0,0,0,0,0,0,0,0,0,0,0,0,0,0,0,0,0,0,0,0,0,0,0,0,0,0,0,0,0,0,0,0,0,0,0,0,0,0,0,0,0,0,0,0,0,0,0,0,0,0,0,0,0,0,0,0,0],"id":5,"left_children":[1,3,5,7,9,11,13,15,17,19,21,23,25,27,29,31,33,35,37,39,41,43,45,47,49,51,53,55,57,59,61,63,65,67,69,71,73,75,77,79,81,83,85,87,89,91,93,95,97,99,101,103,105,107,109,111,113,115,117,119,121,-1,123,-1,-1,-1,-1,-1,-1,-1,-1,-1,-1,-1,-1,-1,-1,-1,-1,-1,-1,-1,-1,-1,-1,-1,-1,-1,-1,-1,-1,-1,-1,-1,-1,-1,-1,-1,-1,-1,-1,-1,-1,-1,-1,-1,-1,-1,-1,-1,-1,-1,-1,-1,-1,-1,-1,-1,-1,-1,-1,-1,-1,-1,-1],"loss_changes":[3.4111798E13,4.8677766E12,6.8546084E12,7.750319E11,6.4049086E11,1.3094355E12,1.4652445E12,1.0693902E11,7.3295266E10,1.0287446E11,6.6880537E10,1.6140993E11,1.8767833E11,2.5384976E11,2.74146E11,1.0563879E10,1.2427198E10,2.3113892E9,3.6961747E10,1.2817873E10,1.467197E10,1.1637391E10,1.2315984E10,2.8076016E10,3.3327415E10,4.623958E10,3.711225E10,1.6409743E11,4.1819832E10,2.5554846E10,8.034976E10,7.8014054E8,1.3500416E9,1.7361797E9,1.5403581E9,5.581046E8,7.74144E8,7.816406E10,1.9837649E10,2.4402883E9,2.3900393E9,3.709055E9,5.969576E9,9.981624E9,2.5301489E9,1.1996824E10,2.557568E9,1.1416437E10,8.98551E9,1.545601E10,9.600762E9,2.9138616E10,1.6805683E10,4.880728E9,1.1803558E10,8.70748E10,2.0665506E10,1.0251403E10,2.663501E10,1.1369185E9,6.171132E9,0E0,4.3079696E10,0E0,0E0,0E0,0E0,0E0,0E0,0E0,0E0,0E0,0E0,0E0,0E0,0E0,0E0,0E0,0E0,0E0,0E0,0E0,0E0,0E0,0E0,0E0,0E0,0E0,0E0,0E0,0E0,0E0,0E0,0E0,0E0,0E0,0E0,0E0,0E0,0E0,0E0,0E0,0E0,0E0,0E0,0E0,0E0,0E0,0E0,0E0,0E0,0E0,0E0,0E0,0E0,0E0,0E0,0E0,0E0,0E0,0E0,0E0,0E0,0E0,0E0],"parents":[2147483647,0,0,1,1,2,2,3,3,4,4,5,5,6,6,7,7,8,8,9,9,10,10,11,11,12,12,13,13,14,14,15,15,16,16,17,17,18,18,19,19,20,20,21,21,22,22,23,23,24,24,25,25,26,26,27,27,28,28,29,29,30,30,31,31,32,32,33,33,34,34,35,35,36,36,37,37,38,38,39,39,40,40,41,41,42,42,43,43,44,44,45,45,46,46,47,47,48,48,49,49,50,50,51,51,52,52,53,53,54,54,55,55,56,56,57,57,58,58,59,59,60,60,62,62],"right_children":[2,4,6,8,10,12,14,16,18,20,22,24,26,28,30,32,34,36,38,40,42,44,46,48,50,52,54,56,58,60,62,64,66,68,70,72,74,76,78,80,82,84,86,88,90,92,94,96,98,100,102,104,106,108,110,112,114,116,118,120,122,-1,124,-1,-1,-1,-1,-1,-1,-1,-1,-1,-1,-1,-1,-1,-1,-1,-1,-1,-1,-1,-1,-1,-1,-1,-1,-1,-1,-1,-1,-1,-1,-1,-1,-1,-1,-1,-1,-1,-1,-1,-1,-1,-1,-1,-1,-1,-1,-1,-1,-1,-1,-1,-1,-1,-1,-1,-1,-1,-1,-1,-1,-1,-1],"split_conditions":[3.2848E4,1.216895E4,7.607412E4,5.50399E3,2.223585E4,5.12981E4,1.1131439E5,2.18922E3,7.62599E3,1.673472E4,2.732666E4,4.161137E4,6.099998E4,9.0564695E4,1.3719069E5,7.9873E2,3.80442E3,6.45919E3,6E0,1.460845E4,1.922174E4,5.2E1,5.2E1,3.872595E4,4.804198E4,5.2E1,6.438447E4,5.2E1,1.10527945E5,1.122939E5,9.969261E4,2.45E2,1.40487E3,3.06427E3,4.69127E3,9.48945E3,1.163823E4,9E1,9.85569E3,1.36374E4,5.2E1,5.2E1,5.2E1,4.7E1,1.456213E4,4.7E1,1.452094E4,5.2E1,4.165481E4,5.2E1,4.7E1,5.981999E4,3.29249E4,0E0,7.527331E4,1.1212681E5,4.9204418E4,9.914112E4,1.368191E5,1.4E1,5.266865E4,9.827594E3,5.2E1,-6.1029474E2,-5.920182E2,-5.6852844E2,-5.4012134E2,-5.084715E2,-4.751485E2,-4.4574448E2,-4.123834E2,-3.7910995E2,-2.763453E2,-3.3765466E2,-2.15968E2,-1.4191954E2,6.2743567E2,-2.784987E2,-1.8208945E2,-1.3155214E2,-7.341678E1,5.141353E0,-2.9726608E2,9.140022E1,-2.3369144E2,1.9777417E2,-2.3206042E2,3.397499E2,5.760281E2,-3.519891E2,9.497334E1,5.512185E2,8.2506244E2,-2.2917159E2,2.693511E2,7.266818E2,1.0932867E2,8.771968E2,1.1012211E3,1.0457411E3,3.2490182E2,1.2430704E3,1.5765444E3,1.4892977E3,1.7772692E3,9.780225E1,1.2212012E3,4.3561923E2,1.8333108E3,2.0830857E3,2.3492332E3,2.526994E3,5.8111807E3,2.5067659E2,1.4821078E3,3.0201426E3,3.3693403E3,3.6480867E3,5.2244165E3,3.3084177E3,3.7927407E3,6.2226626E3,4.258937E3,5.472952E3,2.7474954E3],"split_indices":[19,19,19,19,19,19,22,19,19,19,19,19,22,35,19,19,19,19,14,19,19,14,14,30,30,14,19,14,35,19,35,19,19,19,19,26,26,1,19,30,14,14,14,14,25,14,41,14,26,14,14,19,41,41,22,20,39,22,20,14,41,0,14,0,0,0,0,0,0,0,0,0,0,0,0,0,0,0,0,0,0,0,0,0,0,0,0,0,0,0,0,0,0,0,0,0,0,0,0,0,0,0,0,0,0,0,0,0,0,0,0,0,0,0,0,0,0,0,0,0,0,0,0,0,0],"split_type":[0,0,0,0,0,0,0,0,0,0,0,0,0,0,0,0,0,0,0,0,0,0,0,0,0,0,0,0,0,0,0,0,0,0,0,0,0,0,0,0,0,0,0,0,0,0,0,0,0,0,0,0,0,0,0,0,0,0,0,0,0,0,0,0,0,0,0,0,0,0,0,0,0,0,0,0,0,0,0,0,0,0,0,0,0,0,0,0,0,0,0,0,0,0,0,0,0,0,0,0,0,0,0,0,0,0,0,0,0,0,0,0,0,0,0,0,0,0,0,0,0,0,0,0,0],"sum_hessian":[1.87271E5,1.60366E5,2.6905E4,1.17064E5,4.3302E4,2.183E4,5.075E3,7.8387E4,3.8677E4,2.8612E4,1.469E4,1.388E4,7.95E3,3.733E3,1.342E3,4.6923E4,3.1464E4,1.3806E4,2.4871E4,1.5391E4,1.3221E4,8.065E3,6.625E3,8.037E3,5.843E3,4.354E3,3.596E3,2.241E3,1.492E3,7.16E2,6.26E2,2.8653E4,1.827E4,1.6802E4,1.4662E4,6.469E3,7.337E3,3.304E3,2.1567E4,8.821E3,6.57E3,6.657E3,6.564E3,7.94E3,1.25E2,6.524E3,1.01E2,3.415E3,4.622E3,2.375E3,3.468E3,4.221E3,1.33E2,1.334E3,2.262E3,2.102E3,1.39E2,1.215E3,2.77E2,2.95E2,4.21E2,1.1E1,6.15E2,1.6938E4,1.1715E4,8.827E3,9.443E3,9.504E3,7.298E3,8.089E3,6.573E3,6.321E3,1.48E2,7.197E3,1.4E2,2.933E3,3.71E2,1.1828E4,9.739E3,2.536E3,6.285E3,6.505E3,6.5E1,6.569E3,8.8E1,6.483E3,8.1E1,7.463E3,4.77E2,6.3E1,6.2E1,6.092E3,4.32E2,5.2E1,4.9E1,3.338E3,7.7E1,4.1E3,5.22E2,2.297E3,7.8E1,3.221E3,2.47E2,2.899E3,1.322E3,7.1E1,6.2E1,7E0,1.327E3,1.565E3,6.97E2,2.082E3,2E1,8E1,5.9E1,7.29E2,4.86E2,2.4E2,3.7E1,1.05E2,1.9E2,8E0,4.13E2,5.97E2,1.8E1],"tree_param":{"num_deleted":"0","num_feature":"48","num_nodes":"125","size_leaf_vector":"1"}},{"base_weights":[-1.0616158E1,-4.9615303E3,3.3475367E4,-8.289667E3,4.5032754E3,2.6172389E4,6.63888E4,-1.0111177E4,-4.639304E3,1.4620155E3,9.836169E3,2.0527309E4,3.5946195E4,5.9564617E4,1.0157258E5,-1.1056487E4,-8.686935E3,-6.6085625E3,-3.8280244E3,-1.4337012E2,3.553981E3,8.083002E3,1.2667429E4,1.7507797E4,2.424885E4,3.1231875E4,4.0754934E4,5.2275586E4,7.045004E4,1.0329417E5,4.319489E4,-1.1396046E4,-1.0373589E4,-9.260608E3,-7.992768E3,-6.997987E3,-6.248648E3,-1.4376039E3,-4.159003E3,-9.981422E2,8.018201E2,2.7361538E3,4.667582E3,8.2660205E3,-2.0654924E3,1.2825997E4,1.5810962E3,1.7993725E4,3.091177E3,2.2249908E4,2.6238402E4,3.1483918E4,1.7518021E4,4.113479E4,1.8992826E4,4.75107E4,5.5560297E4,6.512133E4,7.672769E4,1.0064784E5,1.7220548E5,1.5238467E4,3.4883E3,-5.777832E2,-5.5587366E2,-5.300888E2,-5.049619E2,-4.7869888E2,-4.472464E2,-4.157478E2,-3.8419614E2,-3.5383084E2,-2.6835822E2,-3.1544675E2,-2.399217E2,-1.9354906E2,1.7644753E2,-2.58559E2,-1.5181798E2,-5.8823494E1,4.768933E1,3.167633E1,1.6073529E2,1.4344902E2,-1.9725139E2,2.2207849E2,3.4544406E2,3.9701526E2,6.5912634E2,-2.7693802E2,1.6524187E2,6.254631E2,8.7786456E2,-2.0425159E2,3.539342E2,8.677824E2,1.285729E3,-1.18801025E2,5.193241E2,1.0306721E3,1.1613922E3,1.3280878E3,5.897297E2,1.549642E3,1.9545979E3,3.0796826E2,1.2201459E3,2.0156367E3,2.6788442E3,2.997033E2,1.4951854E3,1.5497966E3,2.4366763E3,2.8147058E3,1.2906937E3,1.5596255E3,3.3088462E3,3.92574E3,1.6569633E3,2.3517856E3,5.1077095E3,2.6950789E3,9.025516E3,1.4940164E2,1.3495448E3],"categories":[],"categories_nodes":[],"categories_segments":[],"categories_sizes":[],"default_left":[0,0,0,0,0,0,0,0,0,0,0,0,0,0,0,0,0,0,0,0,0,0,0,0,0,0,0,0,0,0,0,0,0,0,0,0,0,0,0,0,0,0,0,0,0,0,0,0,0,0,0,0,0,0,0,0,0,0,0,0,0,0,0,0,0,0,0,0,0,0,0,0,0,0,0,0,0,0,0,0,0,0,0,0,0,0,0,0,0,0,0,0,0,0,0,0,0,0,0,0,0,0,0,0,0,0,0,0,0,0,0,0,0,0,0,0,0,0,0,0,0,0,0,0,0],"id":6,"left_children":[1,3,5,7,9,11,13,15,17,19,21,23,25,27,29,31,33,35,37,39,41,43,45,47,49,51,53,55,57,59,61,63,65,67,69,71,73,75,77,79,81,83,85,87,89,91,93,95,97,99,101,103,105,107,109,111,113,115,117,119,121,123,-1,-1,-1,-1,-1,-1,-1,-1,-1,-1,-1,-1,-1,-1,-1,-1,-1,-1,-1,-1,-1,-1,-1,-1,-1,-1,-1,-1,-1,-1,-1,-1,-1,-1,-1,-1,-1,-1,-1,-1,-1,-1,-1,-1,-1,-1,-1,-1,-1,-1,-1,-1,-1,-1,-1,-1,-1,-1,-1,-1,-1,-1,-1],"loss_changes":[3.0957264E13,5.1244213E12,5.7795475E12,8.002276E11,6.863941E11,1.0854156E12,1.0424691E12,1.0800385E11,6.3986532E10,9.051978E10,7.61894E10,1.3982761E11,1.6208573E11,2.8671738E11,6.6693628E10,1.107139E10,1.2683575E10,1.594622E9,2.2446866E10,1.2322423E10,1.0645553E10,1.7652777E10,1.0309337E10,4.823987E10,2.1639463E10,1.2040536E10,2.868065E10,3.1730434E10,4.4010308E10,1.079509E11,1.5279198E10,1.3041664E9,8.9666355E8,1.6488858E9,1.3792051E9,6.808699E8,5.016453E8,4.174489E10,2.8309193E10,2.7889167E9,2.9391508E9,6.001529E9,2.4788173E9,1.4831321E10,3.1705928E9,8.461615E9,2.64552E9,3.240847E10,9.038658E9,3.9927153E9,1.2740592E10,1.2149064E10,5.1675075E9,3.3658765E10,8.755915E9,1.672518E10,2.679269E10,2.6552304E10,4.9355424E10,4.8819077E10,1.3850051E10,1.6470188E9,0E0,0E0,0E0,0E0,0E0,0E0,0E0,0E0,0E0,0E0,0E0,0E0,0E0,0E0,0E0,0E0,0E0,0E0,0E0,0E0,0E0,0E0,0E0,0E0,0E0,0E0,0E0,0E0,0E0,0E0,0E0,0E0,0E0,0E0,0E0,0E0,0E0,0E0,0E0,0E0,0E0,0E0,0E0,0E0,0E0,0E0,0E0,0E0,0E0,0E0,0E0,0E0,0E0,0E0,0E0,0E0,0E0,0E0,0E0,0E0,0E0,0E0,0E0],"parents":[2147483647,0,0,1,1,2,2,3,3,4,4,5,5,6,6,7,7,8,8,9,9,10,10,11,11,12,12,13,13,14,14,15,15,16,16,17,17,18,18,19,19,20,20,21,21,22,22,23,23,24,24,25,25,26,26,27,27,28,28,29,29,30,30,31,31,32,32,33,33,34,34,35,35,36,36,37,37,38,38,39,39,40,40,41,41,42,42,43,43,44,44,45,45,46,46,47,47,48,48,49,49,50,50,51,51,52,52,53,53,54,54,55,55,56,56,57,57,58,58,59,59,60,60,61,61],"right_children":[2,4,6,8,10,12,14,16,18,20,22,24,26,28,30,32,34,36,38,40,42,44,46,48,50,52,54,56,58,60,62,64,66,68,70,72,74,76,78,80,82,84,86,88,90,92,94,96,98,100,102,104,106,108,110,112,114,116,118,120,122,124,-1,-1,-1,-1,-1,-1,-1,-1,-1,-1,-1,-1,-1,-1,-1,-1,-1,-1,-1,-1,-1,-1,-1,-1,-1,-1,-1,-1,-1,-1,-1,-1,-1,-1,-1,-1,-1,-1,-1,-1,-1,-1,-1,-1,-1,-1,-1,-1,-1,-1,-1,-1,-1,-1,-1,-1,-1,-1,-1,-1,-1,-1,-1],"split_conditions":[3.565954E4,1.313741E4,7.948062E4,5.808E3,2.347736E4,5.4193336E4,1.3688198E5,2.31696E3,7.62599E3,1.805302E4,3.023572E4,4.368987E4,6.414515E4,1.0009098E5,3.65E2,1.03171E3,4.03875E3,6.70143E3,4.2E1,1.55213E4,2.0894408E4,3.65E2,3.65E2,3.65E2,4.8535E4,3.65E2,3.65E2,8.496138E4,1.122939E5,3.58E2,6.346919E4,3.89E2,1.6924E3,3.13481E3,4.922615E3,8.87482E3,3.3E2,1.96321E5,1.015857E4,1.691885E4,2.025457E4,3.65E2,2.475827E4,3.3E2,1.529238E4,3.3E2,2.3641287E4,3.3E2,1.994016E4,4.5552008E4,3.65E2,3.3E2,4.066241E4,3.3E2,5.078634E4,5.504843E4,3.65E2,6.982088E4,3.65E2,1.122939E5,9.146703E4,3.844816E4,3.4883E3,-5.777832E2,-5.5587366E2,-5.300888E2,-5.049619E2,-4.7869888E2,-4.472464E2,-4.157478E2,-3.8419614E2,-3.5383084E2,-2.6835822E2,-3.1544675E2,-2.399217E2,-1.9354906E2,1.7644753E2,-2.58559E2,-1.5181798E2,-5.8823494E1,4.768933E1,3.167633E1,1.6073529E2,1.4344902E2,-1.9725139E2,2.2207849E2,3.4544406E2,3.9701526E2,6.5912634E2,-2.7693802E2,1.6524187E2,6.254631E2,8.7786456E2,-2.0425159E2,3.539342E2,8.677824E2,1.285729E3,-1.18801025E2,5.193241E2,1.0306721E3,1.1613922E3,1.3280878E3,5.897297E2,1.549642E3,1.9545979E3,3.0796826E2,1.2201459E3,2.0156367E3,2.6788442E3,2.997033E2,1.4951854E3,1.5497966E3,2.4366763E3,2.8147058E3,1.2906937E3,1.5596255E3,3.3088462E3,3.92574E3,1.6569633E3,2.3517856E3,5.1077095E3,2.6950789E3,9.025516E3,1.4940164E2,1.3495448E3],"split_indices":[19,19,27,19,19,27,27,19,19,19,19,27,27,27,16,19,19,27,16,19,27,16,16,16,19,16,16,19,19,16,24,19,19,19,31,26,16,3,19,26,26,16,26,16,33,16,35,16,41,39,16,16,33,16,23,37,16,19,16,19,19,37,0,0,0,0,0,0,0,0,0,0,0,0,0,0,0,0,0,0,0,0,0,0,0,0,0,0,0,0,0,0,0,0,0,0,0,0,0,0,0,0,0,0,0,0,0,0,0,0,0,0,0,0,0,0,0,0,0,0,0,0,0,0,0],"split_type":[0,0,0,0,0,0,0,0,0,0,0,0,0,0,0,0,0,0,0,0,0,0,0,0,0,0,0,0,0,0,0,0,0,0,0,0,0,0,0,0,0,0,0,0,0,0,0,0,0,0,0,0,0,0,0,0,0,0,0,0,0,0,0,0,0,0,0,0,0,0,0,0,0,0,0,0,0,0,0,0,0,0,0,0,0,0,0,0,0,0,0,0,0,0,0,0,0,0,0,0,0,0,0,0,0,0,0,0,0,0,0,0,0,0,0,0,0,0,0,0,0,0,0,0,0],"sum_hessian":[1.86728E5,1.62677E5,2.4051E4,1.20356E5,4.2321E4,1.9685E4,4.366E3,8.029E4,4.0066E4,2.6952E4,1.5369E4,1.248E4,7.205E3,3.659E3,7.07E2,4.8255E4,3.2035E4,1.1688E4,2.8378E4,1.525E4,1.1702E4,9.494E3,5.875E3,6.893E3,5.587E3,3.642E3,3.563E3,2.195E3,1.464E3,6.86E2,2.1E1,3.2219E4,1.6036E4,1.7533E4,1.4502E4,5.605E3,6.083E3,3.452E3,2.4926E4,8.008E3,7.242E3,6.749E3,4.953E3,9.326E3,1.68E2,5.792E3,8.3E1,6.668E3,2.25E2,2.793E3,2.794E3,3.575E3,6.7E1,3.501E3,6.2E1,9.02E2,1.293E3,7.98E2,6.66E2,6.63E2,2.3E1,1.1E1,1E1,2.0457E4,1.1762E4,8.734E3,7.302E3,8.784E3,8.749E3,7.085E3,7.417E3,5.344E3,2.61E2,5.837E3,2.46E2,2.317E3,1.135E3,1.3106E4,1.182E4,7.338E3,6.7E2,6.771E3,4.71E2,6.618E3,1.31E2,4.502E3,4.51E2,8.749E3,5.77E2,1.02E2,6.6E1,5.432E3,3.6E2,4.1E1,4.2E1,6.162E3,5.06E2,1.29E2,9.6E1,1.053E3,1.74E3,2.732E3,6.2E1,3.363E3,2.12E2,2.6E1,4.1E1,3.288E3,2.13E2,2.9E1,3.3E1,6.4E1,8.38E2,1.261E3,3.2E1,2.5E1,7.73E2,6.39E2,2.7E1,1.9E1,6.44E2,2E0,2.1E1,6E0,5E0],"tree_param":{"num_deleted":"0","num_feature":"48","num_nodes":"125","size_leaf_vector":"1"}},{"base_weights":[-2.5830933E1,-5.189694E3,2.8811086E4,-8.187196E3,2.469578E3,2.092239E4,5.562233E4,-9.763388E3,-5.1165635E3,-1.152219E2,6.7406045E3,1.6155586E4,2.8923855E4,4.748521E4,8.399E4,-1.0602094E4,-8.593622E3,-6.547993E3,-4.0221375E3,-1.5778431E3,1.514495E3,4.868585E3,8.812253E3,1.3152877E4,1.9140277E4,2.620486E4,3.3941484E4,4.196896E4,5.530692E4,7.387163E4,1.01818234E5,-1.0906458E4,-1.0116018E4,-9.146617E3,-8.01575E3,-7.085678E3,-6.130998E3,-1.2609174E3,-4.471459E3,-2.4720642E3,-9.886712E2,7.566495E2,2.4519695E3,4.9920366E3,-3.5055E3,1.8039534E3,9.040433E3,1.3489262E4,1.7053915E3,1.7093951E4,2.0702867E4,2.674434E4,9.30037E3,3.368766E4,8.010821E4,1.4479178E4,4.2603234E4,5.6612574E4,2.2498623E4,3.3081404E3,7.990044E4,1.03427234E5,5.137782E4,-5.5136926E2,-5.3640967E2,-5.1739294E2,-4.9508066E2,-4.7098688E2,-4.4476334E2,-4.1858456E2,-3.8760846E2,-3.6350687E2,-3.4049203E2,-3.2076974E2,-2.8923706E2,-1.5158775E2,5.933071E2,-2.8252078E2,-1.9891734E2,-1.1781779E2,-3.8615253E2,-5.6605305E1,8.1832756E1,4.1189262E1,-2.4647827E2,1.2632806E2,-1.71578E2,2.443032E2,6.5423303E2,-2.9703687E2,1.1333026E2,6.5922723E2,-7.2414665E0,4.0929025E2,5.2268884E2,6.5201843E2,9.642653E2,-1.8469928E2,4.0828476E2,8.132733E2,9.750712E2,9.5643085E2,1.1179989E3,1.3158385E3,2.3236833E3,1.333684E2,1.00512317E3,1.698829E3,8.866994E2,1.0113624E3,1.1986202E4,2.0121538E2,1.0045187E3,2.0447125E3,2.3047068E3,2.728596E3,4.7550894E3,3.9184683E2,1.8305781E3,3.4635798E3,4.0783047E3,5.039308E3,8.859291E3,4.3987378E2,3.3539075E3],"categories":[],"categories_nodes":[],"categories_segments":[],"categories_sizes":[],"default_left":[0,0,0,0,0,0,0,0,0,0,0,0,0,0,0,0,0,0,0,0,0,0,0,0,0,0,0,0,0,0,0,0,0,0,0,0,0,0,0,0,0,0,0,0,0,0,0,0,0,0,0,0,0,0,0,0,0,0,0,0,0,0,0,0,0,0,0,0,0,0,0,0,0,0,0,0,0,0,0,0,0,0,0,0,0,0,0,0,0,0,0,0,0,0,0,0,0,0,0,0,0,0,0,0,0,0,0,0,0,0,0,0,0,0,0,0,0,0,0,0,0,0,0,0,0],"id":7,"left_children":[1,3,5,7,9,11,13,15,17,19,21,23,25,27,29,31,33,35,37,39,41,43,45,47,49,51,53,55,57,59,61,63,65,67,69,71,73,75,77,79,81,83,85,87,89,91,93,95,97,99,101,103,105,107,109,111,113,115,117,-1,119,121,123,-1,-1,-1,-1,-1,-1,-1,-1,-1,-1,-1,-1,-1,-1,-1,-1,-1,-1,-1,-1,-1,-1,-1,-1,-1,-1,-1,-1,-1,-1,-1,-1,-1,-1,-1,-1,-1,-1,-1,-1,-1,-1,-1,-1,-1,-1,-1,-1,-1,-1,-1,-1,-1,-1,-1,-1,-1,-1,-1,-1,-1,-1],"loss_changes":[2.7850468E13,3.6418182E12,6.0066586E12,5.517334E11,4.9257225E11,8.3669864E11,1.4864886E12,7.38187E10,6.055841E10,6.6260943E10,6.5195606E10,1.23040694E11,1.1088744E11,2.1427336E11,2.5188368E11,6.3800607E9,9.981395E9,3.7132698E9,2.7188756E10,7.7159096E9,9.339286E9,9.155215E9,1.275134E10,2.6396852E10,2.1699756E10,4.8249176E10,3.100246E10,5.0784633E10,8.752621E10,3.7517E10,3.6726374E10,4.6320845E8,7.3793536E8,1.019478E9,1.3792707E9,3.2253542E8,8.9286246E8,7.137762E10,1.093668E10,3.5167314E9,3.3280369E9,2.7801336E9,2.587857E9,7.4066166E9,1.8267469E9,5.613019E9,9.253814E9,1.7089561E10,6.901842E9,5.650514E9,9.76198E9,4.224608E10,1.1840332E10,1.2589466E10,1.3852028E11,3.9083254E9,1.5302918E10,1.5134674E11,1.6473563E10,0E0,3.4141635E9,7.973844E10,1.1443339E10,0E0,0E0,0E0,0E0,0E0,0E0,0E0,0E0,0E0,0E0,0E0,0E0,0E0,0E0,0E0,0E0,0E0,0E0,0E0,0E0,0E0,0E0,0E0,0E0,0E0,0E0,0E0,0E0,0E0,0E0,0E0,0E0,0E0,0E0,0E0,0E0,0E0,0E0,0E0,0E0,0E0,0E0,0E0,0E0,0E0,0E0,0E0,0E0,0E0,0E0,0E0,0E0,0E0,0E0,0E0,0E0,0E0,0E0,0E0,0E0,0E0,0E0],"parents":[2147483647,0,0,1,1,2,2,3,3,4,4,5,5,6,6,7,7,8,8,9,9,10,10,11,11,12,12,13,13,14,14,15,15,16,16,17,17,18,18,19,19,20,20,21,21,22,22,23,23,24,24,25,25,26,26,27,27,28,28,29,29,30,30,31,31,32,32,33,33,34,34,35,35,36,36,37,37,38,38,39,39,40,40,41,41,42,42,43,43,44,44,45,45,46,46,47,47,48,48,49,49,50,50,51,51,52,52,53,53,54,54,55,55,56,56,57,57,58,58,60,60,61,61,62,62],"right_children":[2,4,6,8,10,12,14,16,18,20,22,24,26,28,30,32,34,36,38,40,42,44,46,48,50,52,54,56,58,60,62,64,66,68,70,72,74,76,78,80,82,84,86,88,90,92,94,96,98,100,102,104,106,108,110,112,114,116,118,-1,120,122,124,-1,-1,-1,-1,-1,-1,-1,-1,-1,-1,-1,-1,-1,-1,-1,-1,-1,-1,-1,-1,-1,-1,-1,-1,-1,-1,-1,-1,-1,-1,-1,-1,-1,-1,-1,-1,-1,-1,-1,-1,-1,-1,-1,-1,-1,-1,-1,-1,-1,-1,-1,-1,-1,-1,-1,-1,-1,-1,-1,-1,-1,-1],"split_conditions":[3.152255E4,1.1463E4,6.961496E4,5.12802E3,2.047851E4,4.8535E4,1.0219216E5,1.93945E3,7.62599E3,1.55213E4,2.529524E4,3.8069566E4,5.9665906E4,8.496138E4,1.5430594E5,7.155E2,3.428E3,6.13107E3,6E0,1.2884522E4,1.805302E4,5.2E1,1.9947645E4,5.2E1,4.161137E4,5.2E1,8.464657E4,5.270925E4,5.2E1,1.2707087E5,5.2E1,2.2E2,1.2405E3,2.636425E3,4.113835E3,5.8022324E3,7.0356675E3,9E1,8.6122E3,5.2E1,4.7E1,5.2E1,5.2E1,5.1E1,1.483774E4,4E0,2.900739E4,4.7E1,1.713675E4,4.139174E4,4.804198E4,5.1E1,3.749655E4,5.2E1,6.346919E4,2.588862E4,7.948062E4,5E1,4.726734E4,3.3081404E3,9.1E1,5.1E1,8.299658E4,-5.5136926E2,-5.3640967E2,-5.1739294E2,-4.9508066E2,-4.7098688E2,-4.4476334E2,-4.1858456E2,-3.8760846E2,-3.6350687E2,-3.4049203E2,-3.2076974E2,-2.8923706E2,-1.5158775E2,5.933071E2,-2.8252078E2,-1.9891734E2,-1.1781779E2,-3.8615253E2,-5.6605305E1,8.1832756E1,4.1189262E1,-2.4647827E2,1.2632806E2,-1.71578E2,2.443032E2,6.5423303E2,-2.9703687E2,1.1333026E2,6.5922723E2,-7.2414665E0,4.0929025E2,5.2268884E2,6.5201843E2,9.642653E2,-1.8469928E2,4.0828476E2,8.132733E2,9.750712E2,9.5643085E2,1.1179989E3,1.3158385E3,2.3236833E3,1.333684E2,1.00512317E3,1.698829E3,8.866994E2,1.0113624E3,1.1986202E4,2.0121538E2,1.0045187E3,2.0447125E3,2.3047068E3,2.728596E3,4.7550894E3,3.9184683E2,1.8305781E3,3.4635798E3,4.0783047E3,5.039308E3,8.859291E3,4.3987378E2,3.3539075E3],"split_indices":[19,19,27,19,19,19,29,19,19,19,19,27,27,19,30,19,19,19,14,27,19,14,27,14,19,14,20,19,14,30,14,19,19,27,27,27,27,1,19,14,14,14,14,14,33,1,19,14,41,25,30,14,24,14,24,41,27,14,33,0,1,14,23,0,0,0,0,0,0,0,0,0,0,0,0,0,0,0,0,0,0,0,0,0,0,0,0,0,0,0,0,0,0,0,0,0,0,0,0,0,0,0,0,0,0,0,0,0,0,0,0,0,0,0,0,0,0,0,0,0,0,0,0,0,0],"split_type":[0,0,0,0,0,0,0,0,0,0,0,0,0,0,0,0,0,0,0,0,0,0,0,0,0,0,0,0,0,0,0,0,0,0,0,0,0,0,0,0,0,0,0,0,0,0,0,0,0,0,0,0,0,0,0,0,0,0,0,0,0,0,0,0,0,0,0,0,0,0,0,0,0,0,0,0,0,0,0,0,0,0,0,0,0,0,0,0,0,0,0,0,0,0,0,0,0,0,0,0,0,0,0,0,0,0,0,0,0,0,0,0,0,0,0,0,0,0,0,0,0,0,0,0,0],"sum_hessian":[1.87027E5,1.58623E5,2.8404E4,1.14006E5,4.4617E4,2.1948E4,6.456E3,7.5334E4,3.8672E4,2.7796E4,1.6821E4,1.3756E4,8.192E3,5.019E3,1.437E3,4.3871E4,3.1463E4,1.6754E4,2.1918E4,1.4649E4,1.3147E4,8.838E3,7.983E3,6.86E3,6.896E3,5.317E3,2.875E3,2.947E3,2.072E3,9.2E2,5.17E2,2.6965E4,1.6906E4,1.607E4,1.5393E4,7.311E3,9.443E3,3.068E3,1.885E4,5.817E3,8.832E3,7.271E3,5.876E3,8.71E3,1.28E2,2.52E2,7.731E3,6.664E3,1.96E2,2.991E3,3.905E3,5.152E3,1.65E2,2.861E3,1.4E1,6.7E1,2.88E3,1.992E3,8E1,4.09E2,5.11E2,5E2,1.7E1,1.603E4,1.0935E4,8.1E3,8.806E3,7.684E3,8.386E3,6.536E3,8.857E3,4.366E3,2.945E3,5.175E3,4.268E3,2.704E3,3.64E2,5.556E3,1.3294E4,5.693E3,1.24E2,8.375E3,4.57E2,7.187E3,8.4E1,5.803E3,7.3E1,8.599E3,1.11E2,9E1,3.8E1,3.6E1,2.16E2,4.822E3,2.909E3,6.188E3,4.76E2,1.07E2,8.9E1,2.231E3,7.6E2,2.009E3,1.896E3,5.045E3,1.07E2,1.03E2,6.2E1,2.809E3,5.2E1,1.1E1,3E0,2.4E1,4.3E1,1.942E3,9.38E2,1.894E3,9.8E1,4E1,4E1,7.5E1,4.36E2,4.85E2,1.5E1,5E0,1.2E1],"tree_param":{"num_deleted":"0","num_feature":"48","num_nodes":"125","size_leaf_vector":"1"}},{"base_weights":[-1.4967331E1,-4.62579E3,2.913278E4,-7.502396E3,3.6529006E3,2.3530191E4,6.3558637E4,-9.146405E3,-4.2399453E3,1.1422822E3,8.345528E3,1.783843E4,3.3480906E4,5.6500625E4,9.113137E4,-9.982011E3,-7.8628213E3,-5.859145E3,-3.3584312E3,-2.9919867E2,2.8513037E3,6.7708228E3,1.0717282E4,1.5108786E4,2.1843125E4,2.921023E4,3.866168E4,4.948894E4,6.443639E4,8.344003E4,1.0515599E5,-1.0285576E4,-9.367881E3,-8.358095E3,-7.2351753E3,-6.22476E3,-5.423646E3,-4.9865515E2,-3.6814316E3,-9.882048E2,5.3974005E2,1.8061096E3,3.5757595E3,6.911956E3,-2.0098514E3,1.0890437E4,5.3495264E2,1.5469363E4,3.048151E3,2.0852662E4,2.5616113E4,2.9470582E4,1.5166466E4,3.8994707E4,1.9271477E4,2.0346408E4,5.0222953E4,6.606367E4,2.936724E4,6.2189562E4,8.463203E4,1.0618487E5,5.3682023E4,-5.206593E2,-4.990541E2,-4.795853E2,-4.571105E2,-4.3171915E2,-4.0063672E2,-3.7087775E2,-3.3937595E2,-3.097927E2,-4.417124E2,-2.717637E2,2.3291219E2,-1.2621737E2,7.0843286E2,-2.2088142E2,-1.3029848E2,-4.6695065E1,-2.9306848E2,5.5567966E0,5.9985928E1,9.803361E1,-1.9630922E2,1.5578975E2,2.2126888E2,2.8944455E2,3.8982486E2,-3.1269955E2,5.0830566E1,5.216599E2,8.725086E2,-1.9911992E2,2.6617465E2,7.6139325E2,1.463395E3,-9.8657814E1,4.8331876E2,9.773338E2,1.1095555E3,1.3149784E3,4.510648E2,1.4431136E3,1.8981237E3,1.0866871E3,1.8305745E2,1.9089133E3,2.5807039E3,5.727267E1,1.3536295E3,7.709187E2,2.0335969E3,2.407448E3,2.7549692E3,3.169115E3,5.4362534E3,-1.7325403E1,1.9969915E3,3.2473992E3,8.316956E2,4.0287793E3,4.4641196E3,5.1918726E3,9.177901E3,2.6830566E1,3.1225078E3],"categories":[],"categories_nodes":[],"categories_segments":[],"categories_sizes":[],"default_left":[0,0,0,0,0,0,0,0,0,0,0,0,0,0,0,0,0,0,0,0,0,0,0,0,0,0,0,0,0,0,0,0,0,0,0,0,0,0,0,0,0,0,0,0,0,0,0,0,0,0,0,0,0,0,0,0,0,0,0,0,0,0,0,0,0,0,0,0,0,0,0,0,0,0,0,0,0,0,0,0,0,0,0,0,0,0,0,0,0,0,0,0,0,0,0,0,0,0,0,0,0,0,0,0,0,0,0,0,0,0,0,0,0,0,0,0,0,0,0,0,0,0,0,0,0,0,0],"id":8,"left_children":[1,3,5,7,9,11,13,15,17,19,21,23,25,27,29,31,33,35,37,39,41,43,45,47,49,51,53,55,57,59,61,63,65,67,69,71,73,75,77,79,81,83,85,87,89,91,93,95,97,99,101,103,105,107,109,111,113,115,117,119,121,123,125,-1,-1,-1,-1,-1,-1,-1,-1,-1,-1,-1,-1,-1,-1,-1,-1,-1,-1,-1,-1,-1,-1,-1,-1,-1,-1,-1,-1,-1,-1,-1,-1,-1,-1,-1,-1,-1,-1,-1,-1,-1,-1,-1,-1,-1,-1,-1,-1,-1,-1,-1,-1,-1,-1,-1,-1,-1,-1,-1,-1,-1,-1,-1,-1],"loss_changes":[2.5172334E13,3.851289E12,4.932602E12,6.4367205E11,4.9131002E11,1.2455888E12,6.9155055E11,8.551504E10,5.7382535E10,6.6932277E10,5.4213018E10,1.5269783E11,1.7598356E11,1.5556044E11,6.975337E10,8.913945E9,9.722528E9,2.2232105E9,2.4053383E10,8.5201756E9,9.406251E9,1.0842407E10,1.0216669E10,3.616958E10,2.0662452E10,1.5611724E10,2.2586327E10,3.1470911E10,7.424495E10,6.7690824E9,7.751598E9,1.152385E9,7.205028E8,1.6086467E9,1.0835067E9,5.2599194E8,7.846134E8,7.859287E10,1.8514706E10,2.1361772E9,1.8801E9,4.518317E9,2.855035E9,8.498086E9,1.7917752E9,1.6917201E10,2.141089E9,2.649935E10,8.0944824E9,7.4286367E9,1.3089309E10,2.1173633E10,6.116233E9,3.4625552E10,8.87739E9,3.2793364E9,1.2325749E10,1.3895729E11,1.9177066E10,2.5638502E9,1.2381061E9,2.5983451E10,3.2283914E9,0E0,0E0,0E0,0E0,0E0,0E0,0E0,0E0,0E0,0E0,0E0,0E0,0E0,0E0,0E0,0E0,0E0,0E0,0E0,0E0,0E0,0E0,0E0,0E0,0E0,0E0,0E0,0E0,0E0,0E0,0E0,0E0,0E0,0E0,0E0,0E0,0E0,0E0,0E0,0E0,0E0,0E0,0E0,0E0,0E0,0E0,0E0,0E0,0E0,0E0,0E0,0E0,0E0,0E0,0E0,0E0,0E0,0E0,0E0,0E0,0E0,0E0,0E0,0E0],"parents":[2147483647,0,0,1,1,2,2,3,3,4,4,5,5,6,6,7,7,8,8,9,9,10,10,11,11,12,12,13,13,14,14,15,15,16,16,17,17,18,18,19,19,20,20,21,21,22,22,23,23,24,24,25,25,26,26,27,27,28,28,29,29,30,30,31,31,32,32,33,33,34,34,35,35,36,36,37,37,38,38,39,39,40,40,41,41,42,42,43,43,44,44,45,45,46,46,47,47,48,48,49,49,50,50,51,51,52,52,53,53,54,54,55,55,56,56,57,57,58,58,59,59,60,60,61,61,62,62],"right_children":[2,4,6,8,10,12,14,16,18,20,22,24,26,28,30,32,34,36,38,40,42,44,46,48,50,52,54,56,58,60,62,64,66,68,70,72,74,76,78,80,82,84,86,88,90,92,94,96,98,100,102,104,106,108,110,112,114,116,118,120,122,124,126,-1,-1,-1,-1,-1,-1,-1,-1,-1,-1,-1,-1,-1,-1,-1,-1,-1,-1,-1,-1,-1,-1,-1,-1,-1,-1,-1,-1,-1,-1,-1,-1,-1,-1,-1,-1,-1,-1,-1,-1,-1,-1,-1,-1,-1,-1,-1,-1,-1,-1,-1,-1,-1,-1,-1,-1,-1,-1,-1,-1,-1,-1,-1,-1],"split_conditions":[3.422138E4,1.293176E4,8.386277E4,5.70352E3,2.304093E4,5.4193336E4,1.2150984E5,2.31696E3,8.9729E3,1.753061E4,2.900739E4,4.368987E4,6.668468E4,1.0008969E5,1.7492253E5,1.03171E3,4.03875E3,7.03525E3,9.04184E3,1.529456E4,1.9351143E4,5.2E1,5.2E1,5.2E1,5.270925E4,5.2E1,5.2E1,6.19635E4,5.2E1,9.2E1,5.2E1,4.88E2,1.6344E3,3.46641E3,4.69229E3,5.2E1,1.809519E4,9E1,1.063421E4,5.2E1,1.688998E4,5.2E1,2.147073E4,2.73443E4,1.456213E4,4.7E1,1.706945E4,5.1E1,2.167645E4,4.7942484E4,5.2E1,4.7E1,1.1559583E4,4.7E1,4.5552008E4,5E1,9.090646E4,5E1,3.749655E4,7.4E1,1.5430594E5,5.1E1,8E0,-5.206593E2,-4.990541E2,-4.795853E2,-4.571105E2,-4.3171915E2,-4.0063672E2,-3.7087775E2,-3.3937595E2,-3.097927E2,-4.417124E2,-2.717637E2,2.3291219E2,-1.2621737E2,7.0843286E2,-2.2088142E2,-1.3029848E2,-4.6695065E1,-2.9306848E2,5.5567966E0,5.9985928E1,9.803361E1,-1.9630922E2,1.5578975E2,2.2126888E2,2.8944455E2,3.8982486E2,-3.1269955E2,5.0830566E1,5.216599E2,8.725086E2,-1.9911992E2,2.6617465E2,7.6139325E2,1.463395E3,-9.8657814E1,4.8331876E2,9.773338E2,1.1095555E3,1.3149784E3,4.510648E2,1.4431136E3,1.8981237E3,1.0866871E3,1.8305745E2,1.9089133E3,2.5807039E3,5.727267E1,1.3536295E3,7.709187E2,2.0335969E3,2.407448E3,2.7549692E3,3.169115E3,5.4362534E3,-1.7325403E1,1.9969915E3,3.2473992E3,8.316956E2,4.0287793E3,4.4641196E3,5.1918726E3,9.177901E3,2.6830566E1,3.1225078E3],"split_indices":[19,19,27,19,19,27,29,19,30,19,19,27,27,19,38,19,19,19,30,19,27,14,14,14,19,14,14,19,14,1,14,19,19,39,29,14,40,1,19,14,22,14,19,30,25,14,37,14,37,39,14,14,40,14,39,14,25,14,24,1,30,14,1,0,0,0,0,0,0,0,0,0,0,0,0,0,0,0,0,0,0,0,0,0,0,0,0,0,0,0,0,0,0,0,0,0,0,0,0,0,0,0,0,0,0,0,0,0,0,0,0,0,0,0,0,0,0,0,0,0,0,0,0,0,0,0,0],"split_type":[0,0,0,0,0,0,0,0,0,0,0,0,0,0,0,0,0,0,0,0,0,0,0,0,0,0,0,0,0,0,0,0,0,0,0,0,0,0,0,0,0,0,0,0,0,0,0,0,0,0,0,0,0,0,0,0,0,0,0,0,0,0,0,0,0,0,0,0,0,0,0,0,0,0,0,0,0,0,0,0,0,0,0,0,0,0,0,0,0,0,0,0,0,0,0,0,0,0,0,0,0,0,0,0,0,0,0,0,0,0,0,0,0,0,0,0,0,0,0,0,0,0,0,0,0,0,0],"sum_hessian":[1.87299E5,1.61718E5,2.5581E4,1.20016E5,4.1702E4,2.2002E4,3.579E3,7.9801E4,4.0215E4,2.7168E4,1.4534E4,1.3998E4,8.004E3,2.852E3,7.27E2,4.8331E4,3.147E4,1.4174E4,2.6041E4,1.4738E4,1.243E4,8.737E3,5.797E3,8.327E3,5.671E3,4.391E3,3.613E3,1.518E3,1.334E3,4.74E2,2.53E2,3.2333E4,1.5998E4,1.7583E4,1.3887E4,7.698E3,6.476E3,2.643E3,2.3398E4,8.092E3,6.646E3,5.09E3,7.34E3,8.599E3,1.38E2,5.7E3,9.7E1,8.085E3,2.42E2,4.497E3,1.174E3,4.31E3,8.1E1,3.551E3,6.2E1,3.8E1,1.48E3,1.274E3,6E1,2.8E1,4.46E2,2.47E2,6E0,2.2761E4,9.572E3,8.011E3,7.987E3,9.755E3,7.828E3,9.856E3,4.031E3,7.617E3,8.1E1,6.469E3,7E0,2.323E3,3.2E2,1.3888E4,9.51E3,8.004E3,8.8E1,4.03E3,2.616E3,4.957E3,1.33E2,4.765E3,2.575E3,3.792E3,4.807E3,5.7E1,8.1E1,5.331E3,3.69E2,5E1,4.7E1,7.948E3,1.37E2,1.38E2,1.04E2,2.284E3,2.213E3,1.127E3,4.7E1,4.026E3,2.84E2,5.1E1,3E1,3.339E3,2.12E2,1.9E1,4.3E1,3.2E1,6E0,1.046E3,4.34E2,1.201E3,7.3E1,1.6E1,4.4E1,2.6E1,2E0,2.48E2,1.98E2,2.42E2,5E0,1E0,5E0],"tree_param":{"num_deleted":"0","num_feature":"48","num_nodes":"127","size_leaf_vector":"1"}},{"base_weights":[-3.7006157E1,-4.6860063E3,2.5886043E4,-7.3508857E3,2.3060732E3,1.982773E4,5.3730855E4,-8.793255E3,-4.501042E3,-1.1377079E2,5.944416E3,1.4660625E4,2.7428914E4,4.528146E4,7.745651E4,-9.573826E3,-7.728711E3,-5.898964E3,-3.5043538E3,-1.283892E3,1.358628E3,4.1492563E3,7.7572383E3,1.216412E4,1.7444639E4,2.3766979E4,3.2488055E4,4.044299E4,5.287647E4,6.809525E4,9.128403E4,-9.845105E3,-9.135749E3,-8.248852E3,-7.2118467E3,-6.3931035E3,-5.5619146E3,-5.1421466E2,-3.983463E3,-1.9314059E3,-5.0169202E2,3.2525443E2,1.8093202E3,4.243999E3,-2.9783318E3,6.7938286E3,9.191866E3,1.1297664E4,1.4247781E4,1.5969818E4,1.9591934E4,2.442121E4,8.1174653E3,3.1984203E4,6.778986E4,3.7847098E4,4.304211E4,4.907601E4,5.645772E4,5.8376785E4,7.223028E4,9.419649E4,3.711799E4,-4.9776352E2,-4.8407407E2,-4.6720322E2,-4.4722177E2,-4.248878E2,-4.0021445E2,-3.7398663E2,-3.43973E2,-1.3670909E2,-3.2031055E2,-2.9517877E2,-2.651856E2,9.450649E1,-2.697419E2,-2.5016179E2,-1.7092119E2,-9.3952995E1,-3.4891968E2,-2.2227695E1,-2.7843118E2,2.1459934E1,-2.5770358E2,8.28207E1,1.9058844E2,2.0095494E2,3.7526535E2,-3.5925198E2,3.373465E1,3.5037183E2,-8.7425026E1,4.1111725E2,4.9715347E2,5.750104E2,5.8744617E1,6.1192926E2,7.585179E2,8.153271E2,1.5581166E2,9.477629E2,1.1094506E3,1.1824231E3,1.8235361E3,1.3446361E1,7.6435443E2,1.4845366E3,1.7840726E3,4.541199E3,1.7126561E3,1.8396442E3,2.0040869E3,2.0614087E3,2.2506323E3,1.537282E3,2.4699119E3,2.8570571E3,1.8096367E3,2.946149E3,1.8784059E3,3.4048247E3,3.8361802E3,4.555892E3,7.5015713E3,9.13206E2,2.800699E3],"categories":[],"categories_nodes":[],"categories_segments":[],"categories_sizes":[],"default_left":[0,0,0,0,0,0,0,0,0,0,0,0,0,0,0,0,0,0,0,0,0,0,0,0,0,0,0,0,0,0,0,0,0,0,0,0,0,0,0,0,0,0,0,0,0,0,0,0,0,0,0,0,0,0,0,0,0,0,0,0,0,0,0,0,0,0,0,0,0,0,0,0,0,0,0,0,0,0,0,0,0,0,0,0,0,0,0,0,0,0,0,0,0,0,0,0,0,0,0,0,0,0,0,0,0,0,0,0,0,0,0,0,0,0,0,0,0,0,0,0,0,0,0,0,0,0,0],"id":9,"left_children":[1,3,5,7,9,11,13,15,17,19,21,23,25,27,29,31,33,35,37,39,41,43,45,47,49,51,53,55,57,59,61,63,65,67,69,71,73,75,77,79,81,83,85,87,89,91,93,95,97,99,101,103,105,107,109,111,113,115,117,119,121,123,125,-1,-1,-1,-1,-1,-1,-1,-1,-1,-1,-1,-1,-1,-1,-1,-1,-1,-1,-1,-1,-1,-1,-1,-1,-1,-1,-1,-1,-1,-1,-1,-1,-1,-1,-1,-1,-1,-1,-1,-1,-1,-1,-1,-1,-1,-1,-1,-1,-1,-1,-1,-1,-1,-1,-1,-1,-1,-1,-1,-1,-1,-1,-1,-1],"loss_changes":[2.2572578E13,2.9592618E12,4.8036336E12,4.7263462E11,3.8586335E11,9.184236E11,1.0166731E12,6.3367545E10,5.3821702E10,4.5351522E10,5.693761E10,9.659875E10,1.7459682E11,1.3585141E11,1.6659041E11,5.144576E9,8.625193E9,2.643067E9,3.232029E10,7.4276536E9,5.428001E9,5.953831E9,1.1974541E10,1.3103399E10,2.0534526E10,5.6062116E10,6.8481188E10,1.3875544E10,1.7073177E10,2.793223E10,8.106122E10,3.937403E8,5.8825114E8,9.1160576E8,1.3919846E9,2.949284E8,8.12843E8,3.658725E10,1.1187913E10,2.1067428E9,1.9210618E9,2.0189692E9,2.4786944E9,6.3385436E9,1.787444E9,9.526297E9,2.4644157E9,1.0635706E10,3.8070845E9,1.6863461E10,4.004184E9,4.824498E10,1.2488063E10,3.2163758E10,3.9375897E10,1.2533105E9,2.222719E9,2.7044086E9,8.235778E9,5.595464E8,5.121245E9,7.365303E10,9.30857E9,0E0,0E0,0E0,0E0,0E0,0E0,0E0,0E0,0E0,0E0,0E0,0E0,0E0,0E0,0E0,0E0,0E0,0E0,0E0,0E0,0E0,0E0,0E0,0E0,0E0,0E0,0E0,0E0,0E0,0E0,0E0,0E0,0E0,0E0,0E0,0E0,0E0,0E0,0E0,0E0,0E0,0E0,0E0,0E0,0E0,0E0,0E0,0E0,0E0,0E0,0E0,0E0,0E0,0E0,0E0,0E0,0E0,0E0,0E0,0E0,0E0,0E0,0E0,0E0],"parents":[2147483647,0,0,1,1,2,2,3,3,4,4,5,5,6,6,7,7,8,8,9,9,10,10,11,11,12,12,13,13,14,14,15,15,16,16,17,17,18,18,19,19,20,20,21,21,22,22,23,23,24,24,25,25,26,26,27,27,28,28,29,29,30,30,31,31,32,32,33,33,34,34,35,35,36,36,37,37,38,38,39,39,40,40,41,41,42,42,43,43,44,44,45,45,46,46,47,47,48,48,49,49,50,50,51,51,52,52,53,53,54,54,55,55,56,56,57,57,58,58,59,59,60,60,61,61,62,62],"right_children":[2,4,6,8,10,12,14,16,18,20,22,24,26,28,30,32,34,36,38,40,42,44,46,48,50,52,54,56,58,60,62,64,66,68,70,72,74,76,78,80,82,84,86,88,90,92,94,96,98,100,102,104,106,108,110,112,114,116,118,120,122,124,126,-1,-1,-1,-1,-1,-1,-1,-1,-1,-1,-1,-1,-1,-1,-1,-1,-1,-1,-1,-1,-1,-1,-1,-1,-1,-1,-1,-1,-1,-1,-1,-1,-1,-1,-1,-1,-1,-1,-1,-1,-1,-1,-1,-1,-1,-1,-1,-1,-1,-1,-1,-1,-1,-1,-1,-1,-1,-1,-1,-1,-1,-1,-1,-1],"split_conditions":[3.152255E4,1.163175E4,6.907116E4,5.217E3,2.016259E4,4.8535E4,1.122939E5,1.93945E3,7.62599E3,1.576708E4,2.481634E4,3.885187E4,5.887934E4,9.061064E4,1.5430594E5,7.155E2,3.428E3,6.13107E3,4.2E1,1.375123E4,1.811361E4,3.65E2,2.8956566E4,3.716649E4,4.4238742E4,3.65E2,1.0008969E5,7.926334E4,9.914112E4,1.1131439E5,3.65E2,2.2E2,1.2405E3,2.8055557E3,4.5049526E3,4.4148E2,6.958278E3,2.011E3,8.87043E3,3.65E2,3.65E2,3.65E2,3.3E2,3.3E2,9.08316E3,3.65E2,3.0412072E4,3.65E2,2.926705E4,3.65E2,5.188607E4,3.44E2,2.771714E4,6.706015E4,-3.2162452E-16,8.014904E4,8.344355E4,8.014904E4,4.2066613E4,3.65E2,1.1728494E5,3.58E2,5.504843E4,-4.9776352E2,-4.8407407E2,-4.6720322E2,-4.4722177E2,-4.248878E2,-4.0021445E2,-3.7398663E2,-3.43973E2,-1.3670909E2,-3.2031055E2,-2.9517877E2,-2.651856E2,9.450649E1,-2.697419E2,-2.5016179E2,-1.7092119E2,-9.3952995E1,-3.4891968E2,-2.2227695E1,-2.7843118E2,2.1459934E1,-2.5770358E2,8.28207E1,1.9058844E2,2.0095494E2,3.7526535E2,-3.5925198E2,3.373465E1,3.5037183E2,-8.7425026E1,4.1111725E2,4.9715347E2,5.750104E2,5.8744617E1,6.1192926E2,7.585179E2,8.153271E2,1.5581166E2,9.477629E2,1.1094506E3,1.1824231E3,1.8235361E3,1.3446361E1,7.6435443E2,1.4845366E3,1.7840726E3,4.541199E3,1.7126561E3,1.8396442E3,2.0040869E3,2.0614087E3,2.2506323E3,1.537282E3,2.4699119E3,2.8570571E3,1.8096367E3,2.946149E3,1.8784059E3,3.4048247E3,3.8361802E3,4.555892E3,7.5015713E3,9.13206E2,2.800699E3],"split_indices":[19,19,29,19,19,19,19,19,19,19,19,19,22,31,30,19,19,19,16,19,30,16,39,22,39,16,19,22,22,22,16,19,19,39,31,22,39,15,19,16,16,16,16,16,41,16,31,16,41,16,22,16,33,19,45,19,35,19,40,16,33,16,37,0,0,0,0,0,0,0,0,0,0,0,0,0,0,0,0,0,0,0,0,0,0,0,0,0,0,0,0,0,0,0,0,0,0,0,0,0,0,0,0,0,0,0,0,0,0,0,0,0,0,0,0,0,0,0,0,0,0,0,0,0,0,0,0],"split_type":[0,0,0,0,0,0,0,0,0,0,0,0,0,0,0,0,0,0,0,0,0,0,0,0,0,0,0,0,0,0,0,0,0,0,0,0,0,0,0,0,0,0,0,0,0,0,0,0,0,0,0,0,0,0,0,0,0,0,0,0,0,0,0,0,0,0,0,0,0,0,0,0,0,0,0,0,0,0,0,0,0,0,0,0,0,0,0,0,0,0,0,0,0,0,0,0,0,0,0,0,0,0,0,0,0,0,0,0,0,0,0,0,0,0,0,0,0,0,0,0,0,0,0,0,0,0,0],"sum_hessian":[1.87297E5,1.58816E5,2.8481E4,1.1499E5,4.3826E4,2.3393E4,5.088E3,7.6347E4,3.8643E4,2.6321E4,1.7505E4,1.3928E4,9.465E3,3.754E3,1.334E3,4.4044E4,3.2303E4,1.6082E4,2.2561E4,1.4666E4,1.1655E4,8.797E3,8.708E3,7.346E3,6.582E3,5.494E3,3.971E3,2.297E3,1.457E3,7.99E2,5.35E2,2.7187E4,1.6857E4,1.6093E4,1.621E4,6.514E3,9.568E3,3.116E3,1.9445E4,8.023E3,6.643E3,3.54E3,8.115E3,8.682E3,1.15E2,5.213E3,3.495E3,5.193E3,2.153E3,3.907E3,2.675E3,5.273E3,2.21E2,3.917E3,5.4E1,1.157E3,1.14E3,7.14E2,7.43E2,2.43E2,5.56E2,5.07E2,2.8E1,1.6212E4,1.0975E4,8.047E3,8.81E3,7.959E3,8.134E3,8.964E3,7.246E3,2.4E1,6.49E3,4.109E3,5.459E3,2.088E3,1.028E3,6.93E3,1.2515E4,7.942E3,8.1E1,6.57E3,7.3E1,3.475E3,6.5E1,7.541E3,5.74E2,8.124E3,5.58E2,5.3E1,6.2E1,5.086E3,1.27E2,1.531E3,1.964E3,5.091E3,1.02E2,6.82E2,1.471E3,3.807E3,1E2,2.155E3,5.2E2,4.958E3,3.15E2,1.06E2,1.15E2,2.423E3,1.494E3,3.1E1,2.3E1,7.98E2,3.59E2,6.05E2,5.35E2,1.4E1,7E2,7.17E2,2.6E1,2.35E2,8E0,2.98E2,2.58E2,4.83E2,2.4E1,1.5E1,1.3E1],"tree_param":{"num_deleted":"0","num_feature":"48","num_nodes":"127","size_leaf_vector":"1"}},{"base_weights":[2.080238E1,-4.153091E3,2.6216076E4,-6.792034E3,3.2304504E3,1.9999322E4,5.125535E4,-8.269302E3,-3.9468044E3,9.190672E2,7.3039937E3,1.600919E4,2.8381174E4,4.322978E4,7.185756E4,-8.990111E3,-7.1107583E3,-5.4617476E3,-3.1715576E3,-2.7161536E2,2.6383943E3,5.967547E3,9.474475E3,1.399436E4,1.9500164E4,2.52516E4,3.2244875E4,3.8805188E4,4.965631E4,6.187883E4,8.328882E4,-9.295012E3,-8.45591E3,-7.573725E3,-6.62699E3,-5.5209883E3,-2.5895894E3,-3.5215752E3,-1.5998657E3,-4.0768607E2,4.4400586E3,2.4080637E3,6.462449E3,5.6386987E3,9.538889E3,9.013557E3,1.2889544E4,1.422988E4,4.31983E3,1.9974295E4,9.447076E3,1.754714E4,2.5883934E4,3.1469342E4,4.1990836E4,3.951031E4,1.9233242E4,1.132436E4,5.024595E4,7.000164E3,6.3035613E4,8.0775305E4,1.2054304E5,-4.7059116E2,-4.5170337E2,-4.3230606E2,-4.098108E2,-1.828935E2,-3.7967477E2,-3.331815E2,-2.2753238E2,-3.8166306E1,-2.773237E2,-1.5372894E2,8.570483E1,-2.2781749E2,-1.3913818E2,-1.2760905E2,3.1377554E2,-5.5865467E1,1.5952199E1,1.1579293E2,3.5905167E2,1.2660579E2,-1.3792302E2,2.6728824E2,5.682216E2,2.6448056E2,4.848828E2,4.3443546E2,7.924969E2,4.6540918E2,1.10656364E2,6.076952E2,1.3009127E3,6.2225195E2,7.747899E2,2.277047E3,1.5520734E2,9.41914E2,1.0768102E3,9.967824E2,2.3013109E2,8.226031E1,1.0525417E3,1.2320731E3,1.3796732E3,1.6018976E3,3.9043918E2,1.8979459E3,7.10379E3,1.9636224E3,3.2486558E3,2.072232E3,2.6209573E2,2.572154E3,2.6694412E2,2.3390203E3,2.6895295E3,9.539647E1,1.1536472E3,3.1870093E3,1.8950928E3,9.5466376E2,4.154818E3,6.91459E3,2.6733787E3],"categories":[],"categories_nodes":[],"categories_segments":[],"categories_sizes":[],"default_left":[0,0,0,0,0,0,0,0,0,0,0,0,0,0,0,0,0,0,0,0,0,0,0,0,0,0,0,0,0,0,0,0,0,0,0,0,0,0,0,0,0,0,0,0,0,0,0,0,0,0,0,0,0,0,0,0,0,0,0,0,0,0,0,0,0,0,0,0,0,0,0,0,0,0,0,0,0,0,0,0,0,0,0,0,0,0,0,0,0,0,0,0,0,0,0,0,0,0,0,0,0,0,0,0,0,0,0,0,0,0,0,0,0,0,0,0,0,0,0,0,0,0,0,0,0,0,0],"id":10,"left_children":[1,3,5,7,9,11,13,15,17,19,21,23,25,27,29,31,33,35,37,39,41,43,45,47,49,51,53,55,57,59,61,63,65,67,69,71,73,75,77,79,81,83,85,87,89,91,93,95,97,99,101,103,105,107,109,111,113,115,117,119,121,123,125,-1,-1,-1,-1,-1,-1,-1,-1,-1,-1,-1,-1,-1,-1,-1,-1,-1,-1,-1,-1,-1,-1,-1,-1,-1,-1,-1,-1,-1,-1,-1,-1,-1,-1,-1,-1,-1,-1,-1,-1,-1,-1,-1,-1,-1,-1,-1,-1,-1,-1,-1,-1,-1,-1,-1,-1,-1,-1,-1,-1,-1,-1,-1,-1],"loss_changes":[2.0468952E13,3.1464387E12,4.0041846E12,4.9998882E11,4.0033177E11,6.889742E11,8.429607E11,6.5327333E10,4.773485E10,5.553642E10,4.4591546E10,9.797396E10,7.955913E10,1.0285587E11,1.5830719E11,7.7833175E9,6.677463E9,2.3272817E9,1.4791508E10,1.0278338E10,9.761292E9,1.1137319E10,9.114157E9,2.0126368E10,2.4163123E10,1.7459577E10,2.1134311E10,2.9421994E10,3.3311425E10,4.8377102E10,5.2533133E10,8.511816E8,7.9600026E8,1.1599872E9,1.087701E9,1.6305684E9,5.896979E8,1.6804856E10,3.6772737E10,8.035033E9,2.603439E9,6.718034E9,3.3878487E9,1.2315722E10,4.1654354E9,1.0337944E10,6.3961006E9,1.9349242E10,1.0482342E10,8.249803E9,1.1696493E10,1.5677137E10,6.533153E9,3.6827824E10,8.177038E10,1.022781E10,2.4022569E10,5.488465E9,1.5615394E10,1.3473668E9,1.091856E10,8.803608E10,4.0226062E10,0E0,0E0,0E0,0E0,0E0,0E0,0E0,0E0,0E0,0E0,0E0,0E0,0E0,0E0,0E0,0E0,0E0,0E0,0E0,0E0,0E0,0E0,0E0,0E0,0E0,0E0,0E0,0E0,0E0,0E0,0E0,0E0,0E0,0E0,0E0,0E0,0E0,0E0,0E0,0E0,0E0,0E0,0E0,0E0,0E0,0E0,0E0,0E0,0E0,0E0,0E0,0E0,0E0,0E0,0E0,0E0,0E0,0E0,0E0,0E0,0E0,0E0,0E0,0E0],"parents":[2147483647,0,0,1,1,2,2,3,3,4,4,5,5,6,6,7,7,8,8,9,9,10,10,11,11,12,12,13,13,14,14,15,15,16,16,17,17,18,18,19,19,20,20,21,21,22,22,23,23,24,24,25,25,26,26,27,27,28,28,29,29,30,30,31,31,32,32,33,33,34,34,35,35,36,36,37,37,38,38,39,39,40,40,41,41,42,42,43,43,44,44,45,45,46,46,47,47,48,48,49,49,50,50,51,51,52,52,53,53,54,54,55,55,56,56,57,57,58,58,59,59,60,60,61,61,62,62],"right_children":[2,4,6,8,10,12,14,16,18,20,22,24,26,28,30,32,34,36,38,40,42,44,46,48,50,52,54,56,58,60,62,64,66,68,70,72,74,76,78,80,82,84,86,88,90,92,94,96,98,100,102,104,106,108,110,112,114,116,118,120,122,124,126,-1,-1,-1,-1,-1,-1,-1,-1,-1,-1,-1,-1,-1,-1,-1,-1,-1,-1,-1,-1,-1,-1,-1,-1,-1,-1,-1,-1,-1,-1,-1,-1,-1,-1,-1,-1,-1,-1,-1,-1,-1,-1,-1,-1,-1,-1,-1,-1,-1,-1,-1,-1,-1,-1,-1,-1,-1,-1,-1,-1,-1,-1,-1,-1],"split_conditions":[3.4301055E4,1.2884522E4,7.592606E4,5.583965E3,2.2726428E4,5.4193336E4,1.11500586E5,2.374835E3,7.7387427E3,1.7899697E4,2.9144512E4,4.483762E4,6.414515E4,9.0802805E4,1.3607189E5,1.244E3,3.8766074E3,1.124783E4,8.2298386E-1,2.180441E4,2.475827E4,2.96739E4,3.411235E4,1.9326162E4,7.194091E4,3.055881E4,4.7E1,2.7665246E4,2.076647E4,2.78043E4,5.1E1,5.896E2,1.75375E3,9.3856E2,8.28375E3,8.739E2,1.691885E4,9.526258E3,9E1,1.5209037E4,2.1544185E3,1.0605164E4,3.259413E4,4.7E1,4.165481E4,1.32251045E4,7.4564136E3,3.8069566E4,3.89725E3,4.9899586E4,-3.2162452E-16,2E0,5.9665906E4,2.7665246E4,9.981211E4,3.1486758E4,-3.2162452E-16,2.81E0,1.0009098E5,2.719559E4,5.2E1,7.57267E4,5.2E1,-4.7059116E2,-4.5170337E2,-4.3230606E2,-4.098108E2,-1.828935E2,-3.7967477E2,-3.331815E2,-2.2753238E2,-3.8166306E1,-2.773237E2,-1.5372894E2,8.570483E1,-2.2781749E2,-1.3913818E2,-1.2760905E2,3.1377554E2,-5.5865467E1,1.5952199E1,1.1579293E2,3.5905167E2,1.2660579E2,-1.3792302E2,2.6728824E2,5.682216E2,2.6448056E2,4.848828E2,4.3443546E2,7.924969E2,4.6540918E2,1.10656364E2,6.076952E2,1.3009127E3,6.2225195E2,7.747899E2,2.277047E3,1.5520734E2,9.41914E2,1.0768102E3,9.967824E2,2.3013109E2,8.226031E1,1.0525417E3,1.2320731E3,1.3796732E3,1.6018976E3,3.9043918E2,1.8979459E3,7.10379E3,1.9636224E3,3.2486558E3,2.072232E3,2.6209573E2,2.572154E3,2.6694412E2,2.3390203E3,2.6895295E3,9.539647E1,1.1536472E3,3.1870093E3,1.8950928E3,9.5466376E2,4.154818E3,6.91459E3,2.6733787E3],"split_indices":[27,27,27,27,27,27,27,27,27,27,27,27,27,27,22,30,27,26,46,26,26,26,26,28,30,41,14,28,41,41,14,30,27,22,26,23,26,27,1,27,28,28,26,14,26,28,28,27,24,27,45,13,27,28,20,32,45,5,27,41,14,41,14,0,0,0,0,0,0,0,0,0,0,0,0,0,0,0,0,0,0,0,0,0,0,0,0,0,0,0,0,0,0,0,0,0,0,0,0,0,0,0,0,0,0,0,0,0,0,0,0,0,0,0,0,0,0,0,0,0,0,0,0,0,0,0,0],"split_type":[0,0,0,0,0,0,0,0,0,0,0,0,0,0,0,0,0,0,0,0,0,0,0,0,0,0,0,0,0,0,0,0,0,0,0,0,0,0,0,0,0,0,0,0,0,0,0,0,0,0,0,0,0,0,0,0,0,0,0,0,0,0,0,0,0,0,0,0,0,0,0,0,0,0,0,0,0,0,0,0,0,0,0,0,0,0,0,0,0,0,0,0,0,0,0,0,0,0,0,0,0,0,0,0,0,0,0,0,0,0,0,0,0,0,0,0,0,0,0,0,0,0,0,0,0,0,0],"sum_hessian":[1.87209E5,1.6148E5,2.5729E4,1.18962E5,4.2518E4,2.0613E4,5.116E3,7.8304E4,4.0658E4,2.7127E4,1.5391E4,1.3967E4,6.646E3,3.684E3,1.432E3,4.8267E4,3.0037E4,1.3761E4,2.6897E4,1.6028E4,1.1099E4,9.528E3,5.863E3,8.859E3,5.108E3,3.676E3,2.97E3,2.186E3,1.498E3,7.68E2,6.64E2,3.0718E4,1.7549E4,1.5341E4,1.4696E4,1.3482E4,2.79E2,2.1997E4,4.9E3,1.5579E4,4.49E2,1.047E4,6.29E2,8.727E3,8.01E2,5.169E3,6.94E2,8.648E3,2.11E2,4.877E3,2.31E2,2.81E2,3.395E3,2.755E3,2.15E2,2.109E3,7.7E1,2.3E1,1.475E3,1.6E1,7.52E2,6.25E2,3.9E1,2.1195E4,9.523E3,1.0111E4,7.438E3,7.8E1,1.5263E4,1.4439E4,2.57E2,7.2E1,1.341E4,2.51E2,2.8E1,9.161E3,1.2836E4,4.372E3,5.28E2,7.882E3,7.697E3,2.54E2,1.95E2,1.0225E4,2.45E2,5.14E2,1.15E2,8.038E3,6.89E2,7.08E2,9.3E1,4.954E3,2.15E2,6.59E2,3.5E1,3.593E3,5.055E3,5E0,2.06E2,2.831E3,2.046E3,7.2E1,1.59E2,5.1E1,2.3E2,1.975E3,1.42E3,2.69E3,6.5E1,2.08E2,7E0,2.092E3,1.7E1,2.9E1,4.8E1,2E0,2.1E1,7.53E2,7.22E2,1.3E1,3E0,7.3E2,2.2E1,2.3E1,6.02E2,3E1,9E0],"tree_param":{"num_deleted":"0","num_feature":"48","num_nodes":"127","size_leaf_vector":"1"}},{"base_weights":[2.29654E1,-3.8249585E3,2.6027715E4,-6.3502114E3,3.6492483E3,2.0891266E4,5.480245E4,-7.823179E3,-3.4987559E3,1.263088E3,7.625739E3,1.6289904E4,2.9413531E4,4.8741906E4,7.85201E4,-8.518921E3,-6.650597E3,-5.004655E3,-2.7812297E3,1.8581554E2,2.8926355E3,5.9346357E3,9.474433E3,1.3516859E4,1.9307158E4,2.562671E4,3.3227168E4,4.2314562E4,5.5269445E4,6.883952E4,8.325983E4,-8.803499E3,-7.9525566E3,-7.0645146E3,-6.12074E3,-5.301911E3,-4.623303E3,-4.4535748E2,-3.0228413E3,-4.0829663E2,9.7817633E2,2.6903228E3,5.6557466E3,5.5953574E3,9.218015E3,8.226766E3,1.0668738E4,1.3750162E4,3.1174365E3,1.9612709E4,5.8129814E3,2.53566E4,3.7330844E4,3.357916E4,1.5183052E4,4.3233234E4,2.9314799E4,5.0341406E4,6.092213E4,3.4740254E3,2.0422379E3,1.1137723E3,8.396689E4,-4.463028E2,-4.2630606E2,-4.0692807E2,-3.8756003E2,-3.661677E2,-3.4170062E2,-3.0712924E2,-1.6926028E2,-2.6372858E2,-3.951764E2,-7.3957985E1,-2.337152E2,7.133312E1,-3.8298785E2,-1.8892758E2,-1.0113783E2,-2.721289E1,7.4596695E1,4.1615402E1,1.8696292E2,9.843041E1,1.6839122E2,2.5210547E2,3.8482547E2,2.8635257E2,-9.413275E1,4.44544E2,8.533623E2,4.2180362E2,7.4793963E0,5.092194E2,8.543626E2,6.122615E2,7.569257E2,-1.7071344E2,4.560148E2,9.381427E2,1.421336E3,-2.622995E1,6.26278E2,1.2778892E3,6.865029E2,1.6652588E3,2.5550173E3,1.6430121E3,2.2195337E3,2.2427E2,1.2301488E3,4.9546074E3,2.1353901E3,1.6098002E3,2.751478E2,1.0531361E3,2.5706052E3,3.1573992E3,1.3200895E3,3.946181E3,4.8056396E3],"categories":[],"categories_nodes":[],"categories_segments":[],"categories_sizes":[],"default_left":[0,0,0,0,0,0,0,0,0,0,0,0,0,0,0,0,0,0,0,0,0,0,0,0,0,0,0,0,0,0,0,0,0,0,0,0,0,0,0,0,0,0,0,0,0,0,0,0,0,0,0,0,0,0,0,0,0,0,0,0,0,0,0,0,0,0,0,0,0,0,0,0,0,0,0,0,0,0,0,0,0,0,0,0,0,0,0,0,0,0,0,0,0,0,0,0,0,0,0,0,0,0,0,0,0,0,0,0,0,0,0,0,0,0,0,0,0,0,0,0,0],"id":11,"left_children":[1,3,5,7,9,11,13,15,17,19,21,23,25,27,29,31,33,35,37,39,41,43,45,47,49,51,53,55,57,59,61,63,65,67,69,71,73,75,77,79,81,83,85,87,89,91,93,95,97,99,101,103,105,107,109,111,113,115,117,-1,-1,-1,119,-1,-1,-1,-1,-1,-1,-1,-1,-1,-1,-1,-1,-1,-1,-1,-1,-1,-1,-1,-1,-1,-1,-1,-1,-1,-1,-1,-1,-1,-1,-1,-1,-1,-1,-1,-1,-1,-1,-1,-1,-1,-1,-1,-1,-1,-1,-1,-1,-1,-1,-1,-1,-1,-1,-1,-1,-1,-1],"loss_changes":[1.8679603E13,3.069242E12,3.555218E12,5.1048664E11,3.896564E11,8.002323E11,5.199689E11,6.5327333E10,4.472288E10,4.5057024E10,4.8092414E10,1.1070184E11,1.0252085E11,1.1953976E11,2.8221374E10,8.037073E9,6.5033994E9,1.489961E9,1.5825977E10,7.2749174E9,5.695111E9,8.91152E9,1.0873405E10,1.6731996E10,2.606393E10,1.0421797E10,2.2120235E10,1.6264462E10,3.6990878E10,1.6302735E9,1.9344392E10,1.06142106E9,5.672796E8,9.493545E8,7.619543E8,4.918313E8,9.327739E8,3.553039E10,1.9200344E10,2.2826255E9,2.6639268E9,4.6482964E9,8.327864E8,7.1949353E9,1.7792123E9,6.0882944E9,1.1499569E10,1.3942915E10,6.0301025E9,4.5968523E10,6.0474655E9,7.8779515E9,2.6771702E9,2.5699025E10,6.943621E9,3.594833E10,6.6835087E9,2.3181E10,4.942935E10,0E0,0E0,0E0,2.218446E10,0E0,0E0,0E0,0E0,0E0,0E0,0E0,0E0,0E0,0E0,0E0,0E0,0E0,0E0,0E0,0E0,0E0,0E0,0E0,0E0,0E0,0E0,0E0,0E0,0E0,0E0,0E0,0E0,0E0,0E0,0E0,0E0,0E0,0E0,0E0,0E0,0E0,0E0,0E0,0E0,0E0,0E0,0E0,0E0,0E0,0E0,0E0,0E0,0E0,0E0,0E0,0E0,0E0,0E0,0E0,0E0,0E0,0E0],"parents":[2147483647,0,0,1,1,2,2,3,3,4,4,5,5,6,6,7,7,8,8,9,9,10,10,11,11,12,12,13,13,14,14,15,15,16,16,17,17,18,18,19,19,20,20,21,21,22,22,23,23,24,24,25,25,26,26,27,27,28,28,29,29,30,30,31,31,32,32,33,33,34,34,35,35,36,36,37,37,38,38,39,39,40,40,41,41,42,42,43,43,44,44,45,45,46,46,47,47,48,48,49,49,50,50,51,51,52,52,53,53,54,54,55,55,56,56,57,57,58,58,62,62],"right_children":[2,4,6,8,10,12,14,16,18,20,22,24,26,28,30,32,34,36,38,40,42,44,46,48,50,52,54,56,58,60,62,64,66,68,70,72,74,76,78,80,82,84,86,88,90,92,94,96,98,100,102,104,106,108,110,112,114,116,118,-1,-1,-1,120,-1,-1,-1,-1,-1,-1,-1,-1,-1,-1,-1,-1,-1,-1,-1,-1,-1,-1,-1,-1,-1,-1,-1,-1,-1,-1,-1,-1,-1,-1,-1,-1,-1,-1,-1,-1,-1,-1,-1,-1,-1,-1,-1,-1,-1,-1,-1,-1,-1,-1,-1,-1,-1,-1,-1,-1,-1,-1],"split_conditions":[3.565954E4,1.354066E4,8.386277E4,5.808E3,2.347736E4,5.5850156E4,1.3408142E5,2.5145E3,8.9729E3,1.861793E4,2.900739E4,4.804198E4,6.668468E4,1.0009098E5,1.5430594E5,1.136E3,4.20166E3,7.15628E3,9.04184E3,1.624352E4,2.475827E4,2.96739E4,3.443574E4,5.2E1,5.2E1,7.503864E4,5.2E1,2.7973521E4,1.122939E5,9.003E0,6.676979E4,5.2211E2,1.817E3,3.33758E3,9.82482E3,5.2E1,1.0158E3,6E0,1.07975E4,4.7E1,2.180441E4,2.057506E4,3.104681E4,5.2E1,4.995205E4,5.2E1,4.7E1,4.199463E4,2.8062812E4,4.7E1,2.390133E4,5.2E1,1.5591619E4,4.7E1,5.359148E4,3.159372E4,5.2E1,6.982088E4,5.2E1,3.4740254E3,2.0422379E3,1.1137723E3,8.512E0,-4.463028E2,-4.2630606E2,-4.0692807E2,-3.8756003E2,-3.661677E2,-3.4170062E2,-3.0712924E2,-1.6926028E2,-2.6372858E2,-3.951764E2,-7.3957985E1,-2.337152E2,7.133312E1,-3.8298785E2,-1.8892758E2,-1.0113783E2,-2.721289E1,7.4596695E1,4.1615402E1,1.8696292E2,9.843041E1,1.6839122E2,2.5210547E2,3.8482547E2,2.8635257E2,-9.413275E1,4.44544E2,8.533623E2,4.2180362E2,7.4793963E0,5.092194E2,8.543626E2,6.122615E2,7.569257E2,-1.7071344E2,4.560148E2,9.381427E2,1.421336E3,-2.622995E1,6.26278E2,1.2778892E3,6.865029E2,1.6652588E3,2.5550173E3,1.6430121E3,2.2195337E3,2.2427E2,1.2301488E3,4.9546074E3,2.1353901E3,1.6098002E3,2.751478E2,1.0531361E3,2.5706052E3,3.1573992E3,1.3200895E3,3.946181E3,4.8056396E3],"split_indices":[19,19,27,19,19,27,35,19,30,19,19,30,27,27,30,19,19,19,30,19,26,26,30,14,14,26,14,40,19,12,41,19,19,31,26,14,37,14,19,14,26,27,26,14,26,14,14,30,31,14,41,14,32,14,25,37,14,19,14,0,0,0,12,0,0,0,0,0,0,0,0,0,0,0,0,0,0,0,0,0,0,0,0,0,0,0,0,0,0,0,0,0,0,0,0,0,0,0,0,0,0,0,0,0,0,0,0,0,0,0,0,0,0,0,0,0,0,0,0,0,0],"split_type":[0,0,0,0,0,0,0,0,0,0,0,0,0,0,0,0,0,0,0,0,0,0,0,0,0,0,0,0,0,0,0,0,0,0,0,0,0,0,0,0,0,0,0,0,0,0,0,0,0,0,0,0,0,0,0,0,0,0,0,0,0,0,0,0,0,0,0,0,0,0,0,0,0,0,0,0,0,0,0,0,0,0,0,0,0,0,0,0,0,0,0,0,0,0,0,0,0,0,0,0,0,0,0,0,0,0,0,0,0,0,0,0,0,0,0,0,0,0,0,0,0],"sum_hessian":[1.86674E5,1.62613E5,2.4061E4,1.21547E5,4.1066E4,2.0418E4,3.643E3,8.0145E4,4.1402E4,2.5666E4,1.54E4,1.3261E4,7.157E3,2.904E3,7.39E2,5.0296E4,2.9849E4,1.3359E4,2.8043E4,1.5452E4,1.0214E4,8.045E3,7.355E3,6.913E3,6.348E3,3.595E3,3.562E3,1.467E3,1.437E3,2.48E2,4.91E2,3.3466E4,1.683E4,1.6751E4,1.3098E4,7.5E3,5.859E3,2.629E3,2.5414E4,8.831E3,6.621E3,9.519E3,6.95E2,7.294E3,7.51E2,3.601E3,3.754E3,6.761E3,1.52E2,6.207E3,1.41E2,3.517E3,7.8E1,3.493E3,6.9E1,1.368E3,9.9E1,7.73E2,6.64E2,2.41E2,7E0,6E0,4.85E2,2.3189E4,1.0277E4,8.728E3,8.102E3,7.876E3,8.875E3,1.2993E4,1.05E2,7.425E3,7.5E1,9.4E1,5.765E3,2.088E3,5.41E2,1.4474E4,1.094E4,8.242E3,5.89E2,6.29E3,3.31E2,4.611E3,4.908E3,5.37E2,1.58E2,7.168E3,1.26E2,7.23E2,2.8E1,3.51E3,9.1E1,3.493E3,2.61E2,3.249E3,3.512E3,7.3E1,7.9E1,5.664E3,5.43E2,7.3E1,6.8E1,3.456E3,6.1E1,6.3E1,1.5E1,3.279E3,2.14E2,3.3E1,3.6E1,1.1E1,1.357E3,8.8E1,1.1E1,2.8E1,7.45E2,6.23E2,4.1E1,3.48E2,1.37E2],"tree_param":{"num_deleted":"0","num_feature":"48","num_nodes":"121","size_leaf_vector":"1"}},{"base_weights":[-3.2689774E1,-3.5269167E3,2.5562246E4,-6.0026514E3,3.8045342E3,2.050475E4,5.214572E4,-7.397884E3,-3.2084302E3,1.532546E3,8.0335156E3,1.6335641E4,2.858659E4,4.6330008E4,7.482806E4,-8.079895E3,-6.2535293E3,-4.696269E3,-2.5823708E3,2.2775137E2,3.0634631E3,6.53412E3,9.86035E3,1.375651E4,1.9419074E4,2.5449023E4,3.2539932E4,4.254866E4,5.635905E4,7.5969055E4,3.6402266E4,-8.363777E3,-7.537584E3,-6.6703086E3,-5.749429E3,-4.9450347E3,-4.3473735E3,-2.4631696E2,-2.8161096E3,-5.067683E2,7.791867E2,2.3178196E3,3.9900212E3,5.7187886E3,7.913844E3,8.743833E3,1.1029394E4,1.2458839E4,1.5493785E4,1.9778979E4,5.7623867E3,2.5704438E4,1.1221872E4,6.4418316E4,3.231361E4,4.321498E4,1.813026E4,5.0811152E4,6.131864E4,7.330292E4,1.1989237E5,1.7474323E3,4.5931527E4,-4.2358823E2,-4.0427905E2,-3.8579636E2,-3.663372E2,-3.441488E2,-3.1954358E2,-2.9934985E2,-2.763088E2,-2.4489131E2,-3.8797983E2,-2.1930936E2,-1.6293193E2,-9.848688E1,6.1511334E2,-1.7834492E2,-9.425082E1,-2.113353E1,-2.645486E2,3.0155945E1,1.5881786E2,3.5529785E2,1.0779523E2,2.0364613E2,-1.0981243E1,-2.05481E2,2.9303537E2,3.8467795E2,5.8355133E2,4.4902643E2,2.2352446E1,5.238968E2,6.531269E2,6.388864E2,1.1682802E2,7.533245E2,8.3742395E2,9.46062E2,1.4345945E3,7.127221E1,7.9411896E2,1.2523153E3,1.7662686E3,7.8094025E1,9.991787E2,1.4608226E2,4.628833E3,1.6302234E3,7.418653E2,2.0871006E3,2.9783193E3,1.0696228E2,1.4442396E3,1.4044054E3,2.5584014E3,2.9631223E3,4.2173306E3,1.943333E3,3.7371016E3,5.348136E3,9.321072E3,-6.153335E1,2.567877E2,1.3810966E3,2.7536003E3],"categories":[],"categories_nodes":[],"categories_segments":[],"categories_sizes":[],"default_left":[0,0,0,0,0,0,0,0,0,0,0,0,0,0,0,0,0,0,0,0,0,0,0,0,0,0,0,0,0,0,0,0,0,0,0,0,0,0,0,0,0,0,0,0,0,0,0,0,0,0,0,0,0,0,0,0,0,0,0,0,0,0,0,0,0,0,0,0,0,0,0,0,0,0,0,0,0,0,0,0,0,0,0,0,0,0,0,0,0,0,0,0,0,0,0,0,0,0,0,0,0,0,0,0,0,0,0,0,0,0,0,0,0,0,0,0,0,0,0,0,0,0,0,0,0,0,0],"id":12,"left_children":[1,3,5,7,9,11,13,15,17,19,21,23,25,27,29,31,33,35,37,39,41,43,45,47,49,51,53,55,57,59,61,63,65,67,69,71,73,75,77,79,81,83,85,87,89,91,93,95,97,99,101,103,105,107,109,111,113,115,117,119,121,123,125,-1,-1,-1,-1,-1,-1,-1,-1,-1,-1,-1,-1,-1,-1,-1,-1,-1,-1,-1,-1,-1,-1,-1,-1,-1,-1,-1,-1,-1,-1,-1,-1,-1,-1,-1,-1,-1,-1,-1,-1,-1,-1,-1,-1,-1,-1,-1,-1,-1,-1,-1,-1,-1,-1,-1,-1,-1,-1,-1,-1,-1,-1,-1,-1],"loss_changes":[1.6725238E13,2.9866706E12,3.0191208E12,4.795374E11,3.9910257E11,6.355089E11,4.701039E11,6.3980438E10,3.814854E10,5.397863E10,3.9699743E10,9.877455E10,7.882985E10,1.0606241E11,2.9284368E10,7.8506885E9,6.399197E9,1.0314875E9,1.5745073E10,5.90993E9,8.581169E9,8.927216E9,8.442544E9,1.5103033E10,2.7754496E10,1.2738888E10,1.839412E10,3.3075495E10,1.834641E10,7.423944E10,7.51514E9,9.445048E8,6.0791194E8,9.525002E8,7.028408E8,9.020703E8,1.9945062E8,5.6772133E10,1.8318279E10,2.5152082E9,3.5155697E9,5.3278515E9,1.935319E9,7.0219366E9,2.3600333E9,6.5767506E9,3.4419835E9,1.2523471E10,1.300824E9,4.1687843E10,6.4291645E9,2.1409825E10,5.4702556E9,3.2630751E10,1.385064E10,4.628598E10,9.740833E9,1.595605E9,1.4272823E10,3.034841E10,1.3607567E10,6.686495E7,1.4912594E9,0E0,0E0,0E0,0E0,0E0,0E0,0E0,0E0,0E0,0E0,0E0,0E0,0E0,0E0,0E0,0E0,0E0,0E0,0E0,0E0,0E0,0E0,0E0,0E0,0E0,0E0,0E0,0E0,0E0,0E0,0E0,0E0,0E0,0E0,0E0,0E0,0E0,0E0,0E0,0E0,0E0,0E0,0E0,0E0,0E0,0E0,0E0,0E0,0E0,0E0,0E0,0E0,0E0,0E0,0E0,0E0,0E0,0E0,0E0,0E0,0E0,0E0,0E0,0E0],"parents":[2147483647,0,0,1,1,2,2,3,3,4,4,5,5,6,6,7,7,8,8,9,9,10,10,11,11,12,12,13,13,14,14,15,15,16,16,17,17,18,18,19,19,20,20,21,21,22,22,23,23,24,24,25,25,26,26,27,27,28,28,29,29,30,30,31,31,32,32,33,33,34,34,35,35,36,36,37,37,38,38,39,39,40,40,41,41,42,42,43,43,44,44,45,45,46,46,47,47,48,48,49,49,50,50,51,51,52,52,53,53,54,54,55,55,56,56,57,57,58,58,59,59,60,60,61,61,62,62],"right_children":[2,4,6,8,10,12,14,16,18,20,22,24,26,28,30,32,34,36,38,40,42,44,46,48,50,52,54,56,58,60,62,64,66,68,70,72,74,76,78,80,82,84,86,88,90,92,94,96,98,100,102,104,106,108,110,112,114,116,118,120,122,124,126,-1,-1,-1,-1,-1,-1,-1,-1,-1,-1,-1,-1,-1,-1,-1,-1,-1,-1,-1,-1,-1,-1,-1,-1,-1,-1,-1,-1,-1,-1,-1,-1,-1,-1,-1,-1,-1,-1,-1,-1,-1,-1,-1,-1,-1,-1,-1,-1,-1,-1,-1,-1,-1,-1,-1,-1,-1,-1,-1,-1,-1,-1,-1,-1],"split_conditions":[3.717972E4,1.375123E4,8.386277E4,6.01448E3,2.481634E4,5.7797586E4,1.3688198E5,2.57941E3,8.9729E3,1.861793E4,3.088233E4,5.041525E4,6.961496E4,1.1009141E5,5.2E1,1.136E3,4.28517E3,7.14132E3,9.04184E3,1.708512E4,2.157563E4,2.8956566E4,3.421782E4,4.1607633E4,5.2E1,5.2E1,5.107209E4,5.2E1,1.2707087E5,5E1,4.15529E4,5.5897E2,1.876E3,3.7783582E3,5.2465547E3,5.2E1,4.7E1,9E1,1.07975E4,5.2E1,4.7E1,2E0,4.1607633E4,1.6158715E4,4.7E1,5.2E1,4.199463E4,5.2E1,4.6070953E4,4.7E1,4.136971E4,4.7E1,3.844816E4,2.5359041E4,5.2E1,4.7E1,6.394877E4,8.496138E4,4.7E1,8.671139E4,5.53E1,3.023E1,7.675697E4,-4.2358823E2,-4.0427905E2,-3.8579636E2,-3.663372E2,-3.441488E2,-3.1954358E2,-2.9934985E2,-2.763088E2,-2.4489131E2,-3.8797983E2,-2.1930936E2,-1.6293193E2,-9.848688E1,6.1511334E2,-1.7834492E2,-9.425082E1,-2.113353E1,-2.645486E2,3.0155945E1,1.5881786E2,3.5529785E2,1.0779523E2,2.0364613E2,-1.0981243E1,-2.05481E2,2.9303537E2,3.8467795E2,5.8355133E2,4.4902643E2,2.2352446E1,5.238968E2,6.531269E2,6.388864E2,1.1682802E2,7.533245E2,8.3742395E2,9.46062E2,1.4345945E3,7.127221E1,7.9411896E2,1.2523153E3,1.7662686E3,7.8094025E1,9.991787E2,1.4608226E2,4.628833E3,1.6302234E3,7.418653E2,2.0871006E3,2.9783193E3,1.0696228E2,1.4442396E3,1.4044054E3,2.5584014E3,2.9631223E3,4.2173306E3,1.943333E3,3.7371016E3,5.348136E3,9.321072E3,-6.153335E1,2.567877E2,1.3810966E3,2.7536003E3],"split_indices":[19,19,27,19,19,27,27,19,30,19,19,30,27,39,14,19,19,27,30,30,27,39,39,27,14,14,31,14,30,14,24,19,19,39,39,14,14,1,19,14,14,1,27,27,14,14,30,14,27,14,29,14,37,39,14,14,39,19,14,37,4,4,24,0,0,0,0,0,0,0,0,0,0,0,0,0,0,0,0,0,0,0,0,0,0,0,0,0,0,0,0,0,0,0,0,0,0,0,0,0,0,0,0,0,0,0,0,0,0,0,0,0,0,0,0,0,0,0,0,0,0,0,0,0,0,0,0],"split_type":[0,0,0,0,0,0,0,0,0,0,0,0,0,0,0,0,0,0,0,0,0,0,0,0,0,0,0,0,0,0,0,0,0,0,0,0,0,0,0,0,0,0,0,0,0,0,0,0,0,0,0,0,0,0,0,0,0,0,0,0,0,0,0,0,0,0,0,0,0,0,0,0,0,0,0,0,0,0,0,0,0,0,0,0,0,0,0,0,0,0,0,0,0,0,0,0,0,0,0,0,0,0,0,0,0,0,0,0,0,0,0,0,0,0,0,0,0,0,0,0,0,0,0,0,0,0,0],"sum_hessian":[1.87009E5,1.64546E5,2.2463E4,1.23008E5,4.1538E4,1.8874E4,3.589E3,8.2041E4,4.0967E4,2.7022E4,1.4516E4,1.2453E4,6.421E3,2.859E3,7.3E2,5.1401E4,3.064E4,1.2131E4,2.8836E4,1.4589E4,1.2433E4,7.975E3,6.541E3,6.784E3,5.669E3,3.584E3,2.837E3,2.08E3,7.79E2,7.08E2,2.2E1,3.373E4,1.7671E4,1.6766E4,1.3874E4,7.074E3,5.057E3,2.623E3,2.6213E4,6.256E3,8.333E3,6.891E3,5.542E3,5.016E3,2.959E3,3.35E3,3.191E3,3.888E3,2.896E3,5.523E3,1.46E2,3.52E3,6.4E1,1.8E1,2.819E3,2.024E3,5.6E1,3.73E2,4.06E2,6.7E2,3.8E1,5E0,1.7E1,2.4277E4,9.453E3,9.554E3,8.117E3,9.507E3,7.259E3,6.709E3,7.165E3,6.96E3,1.14E2,4.88E3,1.77E2,2.307E3,3.16E2,1.451E4,1.1703E4,6.149E3,1.07E2,7.764E3,5.69E2,2.24E2,6.667E3,5.435E3,1.07E2,7.1E1,4.945E3,2.798E3,1.61E2,3.257E3,9.3E1,2.515E3,6.76E2,3.769E3,1.19E2,2.17E3,7.26E2,5.041E3,4.82E2,1.03E2,4.3E1,3.298E3,2.22E2,3.1E1,3.3E1,6E0,1.2E1,2.772E3,4.7E1,1.86E3,1.64E2,2.3E1,3.3E1,7E0,3.66E2,3.76E2,3E1,2.8E1,6.42E2,3.4E1,4E0,3E0,2E0,7E0,1E1],"tree_param":{"num_deleted":"0","num_feature":"48","num_nodes":"127","size_leaf_vector":"1"}},{"base_weights":[-1.8181309E1,-3.8077354E3,2.1168635E4,-5.9981187E3,1.9022485E3,1.5363361E4,4.078049E4,-7.2331865E3,-3.8188218E3,1.7918916E2,5.3252593E3,1.1962387E4,2.1428908E4,3.5043457E4,6.1275832E4,-7.8001797E3,-6.389105E3,-4.9091943E3,-2.9045928E3,-9.3065717E2,1.5391411E3,4.2088926E3,6.993787E3,9.8657295E3,1.447755E4,1.882655E4,2.4530041E4,3.0697668E4,4.134682E4,5.2459523E4,7.2435336E4,-8.021385E3,-7.44396E3,-6.751465E3,-5.9880234E3,-5.2713936E3,-4.5460522E3,-7.552945E2,-3.2493677E3,-1.5436387E3,-3.5789825E2,9.090944E2,2.2244883E3,3.574035E3,5.374374E3,7.106078E3,-1.3559266E3,1.0165254E4,2.1489656E2,1.3409982E4,1.628555E4,1.7706014E4,2.142906E4,2.495563E4,1.0073718E4,1.3963024E4,3.1421412E4,4.2384863E4,1.5461983E4,2.365037E3,5.4944625E4,6.557938E4,8.304592E4,-4.0645816E2,-3.9468173E2,-3.7921152E2,-3.6297095E2,-3.4674216E2,-3.2682394E2,-3.1106497E2,-2.8930664E2,-2.7577988E2,-2.567341E2,-2.3584569E2,-2.1142061E2,-1.13891014E2,5.485983E2,-2.3055086E2,-1.470615E2,-7.319922E1,-3.0520343E2,-2.4008059E1,8.8475525E1,5.07035E1,-2.0420322E2,1.0458799E2,2.2950891E2,1.8565942E2,-1.1876205E2,2.533157E2,3.5364813E2,3.386057E2,5.9445575E2,-2.0673528E2,1.427307E2,4.8265167E2,8.1015216E2,-1.8113943E2,2.684202E2,6.5500244E2,9.1100275E2,8.300136E2,2.8807495E2,3.5733813E2,9.015514E2,1.0598635E3,2.7831575E3,1.2151057E3,1.8837594E3,1.17596085E2,9.0261066E2,3.418239E2,1.0844142E3,1.5048534E3,1.7199104E3,2.0351488E3,3.6964773E3,1.07987915E2,1.4193544E3,2.659126E3,3.031571E3,3.2974844E3,1.816016E3,4.289069E3,1.8147715E3],"categories":[],"categories_nodes":[],"categories_segments":[],"categories_sizes":[],"default_left":[0,0,0,0,0,0,0,0,0,0,0,0,0,0,0,0,0,0,0,0,0,0,0,0,0,0,0,0,0,0,0,0,0,0,0,0,0,0,0,0,0,0,0,0,0,0,0,0,0,0,0,0,0,0,0,0,0,0,0,0,0,0,0,0,0,0,0,0,0,0,0,0,0,0,0,0,0,0,0,0,0,0,0,0,0,0,0,0,0,0,0,0,0,0,0,0,0,0,0,0,0,0,0,0,0,0,0,0,0,0,0,0,0,0,0,0,0,0,0,0,0,0,0,0,0],"id":13,"left_children":[1,3,5,7,9,11,13,15,17,19,21,23,25,27,29,31,33,35,37,39,41,43,45,47,49,51,53,55,57,59,61,63,65,67,69,71,73,75,77,79,81,83,85,87,89,91,93,95,97,99,101,103,105,107,109,111,113,115,117,-1,119,121,123,-1,-1,-1,-1,-1,-1,-1,-1,-1,-1,-1,-1,-1,-1,-1,-1,-1,-1,-1,-1,-1,-1,-1,-1,-1,-1,-1,-1,-1,-1,-1,-1,-1,-1,-1,-1,-1,-1,-1,-1,-1,-1,-1,-1,-1,-1,-1,-1,-1,-1,-1,-1,-1,-1,-1,-1,-1,-1,-1,-1,-1,-1],"loss_changes":[1.49845E13,1.9800777E12,3.2233247E12,3.0795078E11,2.5888809E11,4.5050285E11,7.582578E11,3.4902376E10,4.1247375E10,4.407107E10,2.7346502E10,7.370113E10,6.288179E10,1.372025E11,1.3521912E11,3.382444E9,4.225368E9,2.4588124E9,1.6683172E10,5.644284E9,5.6636334E9,6.49796E9,5.5320904E9,2.2082486E10,1.2065178E10,1.2078547E10,2.1762146E10,3.5847668E10,5.469582E10,7.567442E9,3.972897E10,3.0670848E8,3.784704E8,5.621678E8,6.205276E8,2.8696576E8,4.9199514E8,5.5625638E10,8.1278894E9,2.8121231E9,2.1630874E9,3.5883459E9,1.9635364E9,4.731781E9,1.5883878E9,9.203352E9,9.361157E8,2.2760325E10,4.58806E9,5.73499E9,7.7143736E9,1.0139402E10,8.984986E9,2.7970372E10,6.364807E9,6.7885855E9,1.0283123E10,1.0203903E11,1.3865232E10,0E0,2.0765737E9,1.7435197E9,2.7578597E10,0E0,0E0,0E0,0E0,0E0,0E0,0E0,0E0,0E0,0E0,0E0,0E0,0E0,0E0,0E0,0E0,0E0,0E0,0E0,0E0,0E0,0E0,0E0,0E0,0E0,0E0,0E0,0E0,0E0,0E0,0E0,0E0,0E0,0E0,0E0,0E0,0E0,0E0,0E0,0E0,0E0,0E0,0E0,0E0,0E0,0E0,0E0,0E0,0E0,0E0,0E0,0E0,0E0,0E0,0E0,0E0,0E0,0E0,0E0,0E0,0E0,0E0],"parents":[2147483647,0,0,1,1,2,2,3,3,4,4,5,5,6,6,7,7,8,8,9,9,10,10,11,11,12,12,13,13,14,14,15,15,16,16,17,17,18,18,19,19,20,20,21,21,22,22,23,23,24,24,25,25,26,26,27,27,28,28,29,29,30,30,31,31,32,32,33,33,34,34,35,35,36,36,37,37,38,38,39,39,40,40,41,41,42,42,43,43,44,44,45,45,46,46,47,47,48,48,49,49,50,50,51,51,52,52,53,53,54,54,55,55,56,56,57,57,58,58,60,60,61,61,62,62],"right_children":[2,4,6,8,10,12,14,16,18,20,22,24,26,28,30,32,34,36,38,40,42,44,46,48,50,52,54,56,58,60,62,64,66,68,70,72,74,76,78,80,82,84,86,88,90,92,94,96,98,100,102,104,106,108,110,112,114,116,118,-1,120,122,124,-1,-1,-1,-1,-1,-1,-1,-1,-1,-1,-1,-1,-1,-1,-1,-1,-1,-1,-1,-1,-1,-1,-1,-1,-1,-1,-1,-1,-1,-1,-1,-1,-1,-1,-1,-1,-1,-1,-1,-1,-1,-1,-1,-1,-1,-1,-1,-1,-1,-1,-1,-1,-1,-1,-1,-1,-1,-1,-1,-1,-1,-1],"split_conditions":[3.152255E4,1.163175E4,6.961496E4,4.86041E3,2.147073E4,4.8620082E4,1.0219216E5,1.93945E3,7.62599E3,1.624352E4,2.677983E4,3.8975465E4,5.780571E4,8.496138E4,1.3719069E5,7.155E2,3.35381E3,6.13107E3,6E0,1.370715E4,1.87189E4,